
#include <psqt.h>

const int16_t psqt_weights[] = {64, 64, 64, 64, 64, 64, 64, 64, 78, 67, 64, 53, 63, 75, 93, 90, 60, 77, 76, 76, 62, 79, 72, 83, 75, 73, 68, 69, 72, 76, 63, 53, 76, 67, 63, 70, 80, 74, 62, 68, 77, 65, 63, 64, 66, 60, 69, 62, 64, 66, 68, 66, 72, 64, 64, 66, 64, 64, 64, 64, 64, 64, 64, 64, 192, 187, 194, 180, 191, 189, 185, 192, 188, 192, 186, 195, 199, 198, 184, 189, 188, 196, 201, 196, 183, 208, 186, 188, 187, 195, 189, 205, 193, 191, 200, 196, 194, 186, 200, 206, 201, 193, 194, 201, 193, 193, 200, 197, 195, 199, 188, 196, 196, 190, 194, 190, 200, 188, 188, 192, 190, 192, 194, 190, 193, 196, 192, 186, 187, 198, 192, 187, 195, 195, 201, 192, 201, 194, 193, 199, 194, 199, 209, 190, 187, 173, 191, 200, 215, 201, 195, 195, 194, 197, 193, 206, 198, 209, 198, 196, 191, 198, 203, 198, 201, 190, 198, 196, 192, 187, 192, 189, 201, 201, 194, 201, 193, 190, 193, 193, 195, 189, 204, 186, 198, 194, 192, 190, 195, 192, 198, 190, 340, 328, 333, 331, 338, 335, 325, 320, 334, 320, 315, 320, 317, 322, 319, 320, 319, 326, 328, 313, 312, 323, 320, 309, 312, 324, 313, 314, 315, 323, 317, 316, 321, 314, 325, 315, 327, 325, 315, 313, 319, 324, 321, 325, 315, 328, 320, 314, 317, 316, 323, 318, 328, 324, 319, 316, 316, 320, 325, 326, 322, 320, 320, 320, 576, 568, 580, 569, 578, 568, 570, 576, 575, 574, 589, 579, 594, 591, 576, 568, 578, 571, 585, 575, 565, 580, 592, 575, 580, 574, 568, 584, 592, 580, 581, 581, 563, 576, 579, 588, 583, 566, 572, 575, 575, 575, 571, 571, 576, 573, 570, 575, 575, 579, 583, 576, 581, 573, 561, 570, 580, 576, 572, 575, 574, 578, 578, 574, -64, -64, -64, -64, -64, -64, -64, -64, -62, -64, -62, -66, -64, -64, -64, -60, -65, -61, -64, -76, -67, -73, -69, -58, -54, -51, -62, -57, -78, -53, -64, -57, -59, -68, -56, -55, -61, -66, -66, -61, -56, -50, -56, -57, -49, -43, -54, -52, -45, -49, -49, -62, -49, -49, -38, -36, -64, -64, -64, -64, -64, -64, -64, -64, -190, -192, -196, -192, -190, -192, -192, -192, -190, -198, -193, -193, -197, -192, -190, -190, -192, -187, -202, -202, -191, -205, -192, -190, -190, -198, -187, -186, -202, -209, -213, -202, -199, -190, -183, -196, -195, -199, -183, -193, -185, -185, -184, -190, -191, -195, -196, -196, -183, -191, -183, -183, -179, -183, -190, -190, -194, -186, -188, -186, -191, -182, -181, -192, -190, -194, -192, -190, -187, -190, -194, -192, -190, -200, -194, -194, -190, -198, -192, -194, -199, -185, -186, -188, -199, -192, -202, -209, -198, -208, -199, -206, -200, -193, -197, -186, -183, -204, -201, -199, -192, -192, -190, -186, -183, -202, -194, -193, -198, -191, -193, -183, -197, -199, -181, -202, -174, -191, -192, -184, -195, -192, -190, -190, -192, -176, -196, -194, -322, -320, -324, -320, -324, -322, -320, -320, -327, -317, -326, -331, -321, -327, -319, -320, -320, -326, -317, -323, -323, -331, -320, -315, -320, -322, -322, -323, -326, -321, -316, -321, -314, -323, -322, -315, -314, -326, -318, -322, -324, -316, -315, -312, -326, -319, -319, -313, -324, -313, -319, -312, -314, -307, -323, -329, -303, -319, -309, -296, -304, -321, -321, -297, -576, -576, -576, -578, -574, -576, -576, -576, -579, -576, -568, -584, -574, -591, -576, -576, -571, -577, -566, -584, -576, -575, -584, -581, -571, -578, -577, -580, -571, -565, -574, -568, -576, -571, -563, -581, -576, -581, -582, -563, -578, -555, -580, -573, -578, -569, -580, -580, -575, -572, -575, -571, -568, -570, -568, -580, -576, -580, -579, -571, -575, -566, -576, -579, 64, 64, 64, 64, 64, 64, 64, 64, 66, 66, 60, 38, 58, 102, 112, 100, 49, 56, 70, 62, 44, 68, 86, 92, 59, 72, 68, 69, 64, 60, 64, 75, 72, 75, 67, 67, 61, 60, 56, 68, 59, 76, 71, 79, 90, 78, 69, 72, 70, 74, 69, 61, 71, 75, 68, 73, 64, 64, 64, 64, 64, 64, 64, 64, 195, 170, 171, 170, 189, 187, 192, 169, 168, 184, 195, 185, 187, 182, 192, 172, 186, 184, 186, 192, 191, 211, 196, 181, 196, 183, 207, 219, 213, 192, 191, 193, 197, 217, 220, 220, 233, 218, 204, 209, 189, 201, 204, 211, 217, 205, 203, 186, 189, 195, 205, 196, 201, 217, 182, 179, 188, 188, 186, 193, 198, 189, 193, 169, 192, 188, 201, 198, 184, 214, 192, 194, 190, 181, 207, 193, 214, 201, 227, 190, 204, 191, 217, 224, 214, 219, 196, 202, 195, 191, 211, 218, 229, 208, 215, 192, 205, 209, 222, 219, 217, 228, 219, 206, 216, 219, 210, 205, 224, 220, 210, 196, 203, 197, 200, 205, 205, 200, 198, 198, 193, 194, 199, 183, 187, 195, 199, 193, 337, 334, 329, 334, 336, 339, 320, 267, 323, 311, 315, 322, 321, 319, 314, 311, 314, 309, 319, 314, 319, 309, 318, 319, 323, 332, 323, 327, 323, 315, 327, 315, 330, 323, 331, 336, 337, 332, 323, 333, 337, 334, 333, 325, 339, 329, 336, 325, 340, 335, 332, 339, 343, 326, 342, 332, 328, 318, 330, 336, 344, 327, 322, 322, 577, 585, 568, 579, 565, 569, 576, 570, 598, 583, 593, 586, 599, 586, 559, 572, 582, 586, 591, 590, 587, 592, 581, 571, 595, 599, 583, 594, 593, 581, 570, 581, 591, 587, 592, 590, 598, 576, 568, 565, 598, 609, 596, 595, 589, 594, 576, 583, 600, 584, 591, 575, 578, 581, 571, 582, 582, 577, 584, 584, 574, 575, 574, 587, -64, -64, -64, -64, -64, -64, -64, -64, -72, -73, -79, -71, -59, -64, -43, -64, -63, -75, -54, -79, -74, -73, -72, -63, -70, -61, -54, -61, -79, -73, -61, -52, -66, -54, -51, -63, -59, -52, -51, -41, -59, -60, -45, -57, -44, -51, -33, -35, -43, -55, -54, -64, -29, -34, -27, -23, -64, -64, -64, -64, -64, -64, -64, -64, -178, -178, -186, -199, -189, -190, -192, -160, -177, -189, -208, -198, -192, -203, -194, -158, -201, -214, -189, -208, -204, -192, -182, -192, -181, -187, -210, -218, -203, -214, -185, -199, -180, -186, -190, -189, -204, -196, -187, -179, -169, -185, -198, -186, -195, -187, -193, -177, -164, -174, -184, -179, -185, -183, -185, -176, -181, -144, -170, -168, -169, -173, -154, -190, -192, -206, -196, -194, -195, -192, -192, -197, -186, -191, -192, -203, -189, -192, -211, -192, -202, -201, -214, -214, -195, -207, -220, -212, -181, -219, -208, -223, -197, -194, -190, -196, -197, -199, -225, -201, -207, -197, -205, -184, -192, -215, -206, -227, -200, -207, -197, -195, -207, -197, -206, -192, -195, -191, -198, -190, -188, -199, -169, -192, -173, -172, -184, -198, -328, -330, -332, -330, -328, -320, -320, -320, -340, -327, -335, -343, -342, -329, -320, -351, -329, -317, -329, -343, -335, -331, -327, -330, -332, -319, -334, -322, -336, -302, -319, -329, -323, -306, -312, -313, -322, -313, -316, -302, -317, -314, -314, -311, -312, -325, -320, -309, -310, -304, -302, -319, -317, -313, -314, -295, -297, -295, -302, -302, -309, -307, -320, -286, -574, -575, -578, -581, -580, -576, -576, -576, -568, -547, -540, -580, -575, -576, -576, -576, -565, -557, -569, -552, -579, -597, -597, -617, -550, -565, -568, -556, -574, -583, -568, -581, -555, -557, -553, -574, -573, -570, -575, -566, -558, -549, -570, -557, -564, -566, -578, -574, -564, -552, -576, -566, -562, -571, -574, -579, -571, -564, -572, -565, -559, -563, -565, -575, 64, 64, 64, 64, 64, 64, 64, 64, 46, 64, 63, 21, 59, 108, 123, 104, 33, 59, 74, 60, 22, 71, 90, 96, 46, 75, 69, 69, 55, 70, 70, 86, 54, 75, 76, 70, 45, 74, 69, 77, 59, 76, 80, 73, 83, 87, 69, 68, 70, 81, 76, 86, 86, 88, 72, 66, 64, 64, 64, 64, 64, 64, 64, 64, 187, 177, 159, 168, 194, 192, 158, 157, 169, 185, 185, 192, 201, 201, 175, 177, 182, 187, 192, 200, 203, 218, 201, 170, 185, 202, 215, 215, 213, 200, 187, 191, 196, 219, 226, 225, 230, 220, 197, 201, 186, 215, 212, 231, 228, 225, 216, 184, 192, 211, 221, 194, 215, 219, 203, 179, 164, 189, 190, 190, 188, 200, 190, 146, 203, 199, 212, 194, 197, 192, 193, 206, 193, 199, 211, 206, 224, 223, 236, 217, 201, 218, 211, 231, 216, 233, 211, 215, 207, 208, 229, 221, 233, 218, 223, 189, 209, 230, 231, 227, 229, 241, 216, 204, 246, 228, 221, 227, 246, 226, 226, 210, 194, 208, 201, 201, 209, 218, 202, 179, 194, 186, 199, 188, 206, 201, 206, 195, 333, 329, 326, 332, 330, 320, 299, 263, 307, 313, 324, 313, 311, 319, 323, 314, 307, 327, 321, 314, 312, 318, 329, 327, 321, 326, 317, 334, 324, 323, 316, 310, 335, 324, 341, 331, 321, 332, 322, 325, 338, 348, 333, 338, 351, 338, 334, 328, 352, 349, 341, 355, 353, 343, 356, 337, 339, 328, 333, 347, 351, 340, 322, 336, 584, 574, 572, 566, 560, 576, 529, 561, 603, 596, 583, 585, 590, 583, 550, 557, 588, 587, 589, 591, 577, 595, 568, 554, 591, 599, 589, 598, 601, 576, 568, 575, 605, 598, 604, 612, 582, 596, 566, 570, 612, 595, 600, 594, 598, 584, 566, 573, 603, 596, 598, 591, 577, 585, 568, 570, 590, 581, 588, 574, 586, 580, 583, 574, -64, -64, -64, -64, -64, -64, -64, -64, -78, -74, -71, -78, -64, -54, -64, -83, -68, -77, -66, -63, -76, -65, -66, -49, -64, -58, -55, -54, -84, -56, -65, -48, -61, -54, -47, -68, -79, -35, -62, -32, -55, -66, -40, -65, -59, -47, -36, -33, -46, -61, -49, -62, -35, -25, -31, -16, -64, -64, -64, -64, -64, -64, -64, -64, -125, -183, -190, -185, -172, -192, -189, -150, -155, -187, -228, -192, -189, -175, -205, -192, -198, -220, -198, -222, -192, -222, -192, -178, -184, -193, -216, -227, -211, -221, -187, -188, -191, -188, -191, -200, -209, -210, -188, -185, -169, -181, -200, -204, -202, -193, -199, -167, -161, -172, -184, -178, -190, -185, -184, -176, -159, -146, -178, -168, -177, -170, -158, -180, -164, -189, -183, -197, -146, -192, -194, -197, -176, -195, -193, -196, -192, -200, -192, -157, -189, -203, -236, -245, -215, -214, -225, -217, -185, -213, -234, -212, -213, -210, -223, -198, -181, -212, -213, -229, -205, -220, -197, -195, -217, -203, -226, -215, -224, -220, -208, -193, -206, -224, -218, -217, -197, -217, -205, -187, -186, -192, -189, -199, -213, -184, -192, -207, -321, -325, -330, -323, -320, -320, -320, -335, -341, -338, -334, -357, -352, -320, -337, -338, -334, -322, -335, -328, -341, -325, -325, -321, -334, -313, -340, -321, -324, -320, -326, -325, -323, -305, -330, -321, -320, -304, -315, -320, -319, -316, -311, -314, -313, -314, -319, -295, -313, -315, -312, -303, -302, -305, -300, -293, -299, -307, -304, -311, -307, -311, -309, -276, -526, -566, -573, -577, -576, -576, -576, -592, -530, -516, -538, -579, -576, -576, -576, -619, -546, -553, -561, -588, -588, -613, -595, -577, -550, -541, -582, -570, -568, -568, -571, -595, -547, -558, -562, -580, -590, -585, -578, -590, -570, -563, -585, -575, -574, -577, -572, -564, -541, -561, -571, -574, -561, -582, -588, -578, -561, -557, -568, -557, -565, -561, -567, -567, 64, 64, 64, 64, 64, 64, 64, 64, 69, 78, 75, 53, 77, 77, 92, 79, 58, 79, 93, 88, 87, 82, 82, 66, 51, 76, 79, 87, 84, 40, 75, 64, 69, 64, 60, 40, 64, 68, 65, 62, 78, 71, 65, 58, 62, 75, 56, 73, 62, 71, 75, 66, 68, 71, 71, 62, 64, 64, 64, 64, 64, 64, 64, 64, 182, 181, 187, 195, 192, 194, 181, 185, 178, 194, 199, 187, 208, 177, 189, 192, 193, 204, 197, 209, 201, 206, 197, 168, 198, 202, 208, 219, 211, 208, 204, 185, 201, 190, 214, 207, 245, 210, 198, 203, 194, 195, 210, 212, 190, 185, 197, 187, 182, 192, 208, 202, 191, 199, 187, 185, 146, 192, 190, 190, 188, 191, 191, 137, 184, 193, 205, 193, 192, 212, 196, 200, 184, 207, 211, 212, 214, 188, 225, 192, 201, 206, 228, 238, 223, 228, 197, 201, 193, 211, 210, 235, 209, 226, 206, 186, 206, 206, 206, 217, 209, 212, 201, 213, 210, 188, 222, 198, 192, 223, 200, 214, 202, 198, 188, 191, 199, 203, 212, 188, 191, 196, 187, 198, 207, 196, 196, 194, 320, 320, 324, 326, 320, 292, 296, 301, 294, 317, 326, 317, 314, 308, 308, 299, 325, 313, 324, 321, 320, 311, 312, 312, 322, 328, 320, 328, 329, 327, 319, 321, 324, 314, 327, 325, 334, 325, 329, 338, 317, 320, 313, 323, 321, 315, 323, 323, 319, 330, 329, 341, 329, 326, 330, 327, 317, 316, 323, 315, 321, 317, 329, 322, 577, 578, 561, 562, 576, 542, 557, 562, 568, 571, 569, 564, 550, 539, 559, 565, 575, 567, 575, 571, 552, 543, 544, 559, 561, 620, 567, 591, 561, 566, 580, 538, 565, 571, 588, 562, 577, 576, 557, 565, 560, 582, 578, 576, 567, 572, 569, 553, 579, 612, 600, 569, 569, 553, 569, 548, 578, 588, 581, 577, 573, 586, 571, 556, -64, -64, -64, -64, -64, -64, -64, -64, -65, -68, -69, -64, -63, -64, -64, -68, -75, -73, -71, -82, -92, -63, -65, -68, -65, -72, -58, -50, -56, -65, -59, -72, -50, -56, -40, -58, -61, -8, -57, -49, -54, -62, -48, -42, -38, -34, -52, -49, -39, -51, -39, -41, 3, -48, -48, -36, -64, -64, -64, -64, -64, -64, -64, -64, -191, -186, -196, -184, -192, -189, -190, -96, -178, -202, -192, -202, -182, -200, -192, -189, -196, -203, -215, -192, -246, -192, -197, -180, -191, -232, -217, -232, -227, -215, -216, -204, -195, -188, -198, -221, -211, -208, -185, -190, -186, -186, -198, -196, -194, -192, -207, -175, -195, -191, -194, -185, -194, -176, -196, -195, -188, -158, -194, -186, -182, -201, -162, -194, -208, -181, -198, -189, -192, -193, -191, -184, -183, -211, -205, -192, -202, -192, -205, -204, -211, -198, -206, -215, -220, -220, -198, -200, -202, -206, -210, -208, -213, -220, -194, -200, -185, -202, -231, -212, -228, -195, -224, -188, -197, -215, -204, -226, -198, -234, -195, -219, -196, -217, -217, -193, -218, -177, -215, -190, -187, -189, -183, -192, -183, -200, -187, -193, -319, -321, -328, -320, -320, -320, -318, -331, -340, -350, -347, -343, -320, -336, -333, -336, -333, -329, -320, -322, -310, -324, -316, -329, -315, -303, -325, -329, -336, -327, -321, -318, -306, -322, -323, -323, -321, -316, -325, -326, -323, -323, -315, -321, -311, -322, -332, -310, -323, -329, -327, -316, -318, -322, -316, -318, -284, -315, -313, -331, -312, -319, -328, -290, -585, -583, -584, -576, -576, -576, -582, -587, -568, -619, -615, -576, -576, -576, -606, -582, -595, -585, -579, -591, -605, -610, -580, -578, -601, -586, -596, -594, -577, -591, -597, -573, -579, -579, -581, -592, -594, -586, -587, -604, -579, -589, -592, -586, -580, -582, -628, -579, -586, -576, -588, -588, -584, -591, -580, -575, -568, -579, -579, -590, -593, -585, -576, -582, 64, 64, 64, 64, 64, 64, 64, 64, 46, 87, 95, 60, 46, 53, 75, 48, 28, 78, 60, 85, 51, 54, 53, 34, 28, 70, 62, 85, 82, 63, 61, 24, 32, 72, 55, 82, 67, 38, 55, 24, 54, 72, 71, 57, 65, 38, 53, 30, 62, 57, 69, 78, 79, 70, 83, 68, 64, 64, 64, 64, 64, 64, 64, 64, 173, 201, 177, 192, 185, 166, 209, 173, 171, 183, 199, 205, 208, 206, 190, 167, 174, 211, 212, 213, 200, 220, 200, 181, 179, 180, 224, 202, 213, 213, 191, 197, 197, 194, 219, 209, 222, 198, 197, 193, 202, 222, 231, 228, 238, 175, 214, 198, 195, 183, 211, 177, 184, 207, 153, 177, 99, 191, 163, 193, 172, 176, 187, 83, 220, 207, 235, 192, 211, 239, 210, 237, 233, 253, 245, 231, 235, 227, 256, 234, 221, 234, 224, 243, 233, 235, 234, 224, 222, 209, 244, 221, 239, 233, 220, 209, 190, 239, 223, 237, 237, 238, 229, 223, 233, 203, 215, 232, 243, 203, 227, 213, 171, 250, 206, 193, 194, 213, 243, 178, 191, 175, 177, 193, 153, 195, 162, 182, 336, 308, 289, 320, 322, 323, 318, 336, 290, 303, 291, 312, 297, 290, 303, 299, 294, 315, 307, 314, 304, 322, 323, 292, 305, 286, 308, 307, 326, 315, 292, 309, 322, 318, 315, 325, 306, 326, 312, 311, 316, 298, 312, 322, 319, 309, 329, 331, 318, 313, 318, 307, 335, 311, 300, 331, 344, 326, 332, 323, 334, 348, 342, 335, 579, 566, 534, 576, 594, 557, 559, 601, 582, 577, 582, 577, 592, 586, 575, 562, 549, 566, 573, 564, 571, 570, 584, 566, 547, 583, 563, 557, 574, 564, 574, 575, 572, 542, 561, 547, 574, 572, 553, 573, 582, 582, 581, 590, 597, 564, 566, 558, 567, 570, 595, 545, 565, 550, 549, 547, 594, 599, 616, 577, 582, 607, 585, 522, -64, -64, -64, -64, -64, -64, -64, -64, -77, -71, -64, -38, -64, -60, -85, -65, -99, -83, -74, -73, -80, -53, -54, -45, -54, -61, -35, -49, -59, -37, -45, -34, -35, -59, -38, -46, -54, -45, -42, -18, -39, -70, -27, -31, -30, -29, -34, -16, -31, -58, -33, -29, -36, -27, -35, -8, -64, -64, -64, -64, -64, -64, -64, -64, -72, -195, -165, -192, -160, -188, -189, -175, -186, -192, -197, -185, -172, -192, -173, -198, -195, -231, -192, -258, -192, -174, -239, -202, -209, -186, -205, -205, -237, -209, -210, -202, -196, -178, -200, -202, -198, -205, -186, -190, -170, -193, -204, -195, -191, -200, -199, -183, -184, -173, -195, -188, -199, -193, -188, -167, -168, -172, -185, -183, -174, -174, -187, -161, -181, -191, -194, -192, -182, -219, -187, -186, -166, -260, -192, -194, -192, -220, -254, -189, -228, -196, -235, -253, -260, -250, -232, -215, -203, -217, -236, -252, -239, -253, -239, -218, -199, -217, -236, -229, -224, -234, -235, -226, -221, -225, -229, -223, -231, -228, -230, -240, -225, -238, -239, -222, -228, -237, -244, -228, -214, -207, -214, -208, -208, -218, -213, -234, -335, -314, -320, -320, -320, -331, -326, -334, -337, -323, -339, -320, -334, -342, -336, -337, -324, -304, -313, -332, -324, -327, -326, -328, -313, -314, -313, -310, -324, -324, -307, -314, -315, -315, -296, -323, -310, -326, -297, -323, -303, -320, -300, -300, -309, -305, -329, -292, -299, -306, -309, -304, -316, -308, -298, -299, -292, -313, -306, -321, -316, -316, -307, -283, -594, -578, -576, -576, -576, -598, -575, -533, -555, -605, -576, -576, -576, -568, -592, -543, -583, -586, -597, -634, -625, -601, -576, -562, -553, -547, -582, -601, -579, -608, -579, -571, -563, -601, -578, -593, -573, -577, -587, -576, -567, -588, -577, -578, -579, -577, -589, -592, -571, -579, -597, -586, -584, -588, -581, -576, -589, -577, -582, -592, -587, -578, -574, -592, 64, 64, 64, 64, 64, 64, 64, 64, 70, 95, 101, 79, 33, 73, 74, 78, 66, 87, 70, 84, 78, 66, 65, 67, 68, 72, 67, 71, 78, 60, 70, 63, 78, 69, 77, 75, 62, 69, 69, 74, 70, 67, 67, 83, 73, 52, 75, 82, 47, 48, 75, 73, 82, 75, 70, 90, 64, 64, 64, 64, 64, 64, 64, 64, 187, 197, 192, 188, 196, 183, 164, 178, 180, 188, 193, 195, 187, 189, 183, 193, 193, 193, 219, 207, 207, 214, 196, 169, 198, 195, 204, 223, 215, 206, 197, 195, 190, 215, 222, 219, 224, 207, 205, 195, 198, 200, 182, 200, 206, 206, 205, 175, 167, 192, 227, 216, 189, 192, 197, 182, 138, 194, 192, 198, 194, 198, 194, 152, 188, 189, 192, 205, 190, 202, 184, 187, 200, 203, 218, 214, 214, 206, 200, 200, 210, 209, 219, 217, 220, 214, 211, 197, 184, 215, 221, 227, 224, 219, 202, 200, 197, 224, 211, 211, 207, 223, 215, 211, 217, 199, 210, 200, 215, 211, 212, 193, 181, 235, 194, 213, 208, 201, 200, 171, 190, 188, 196, 198, 187, 204, 206, 180, 288, 292, 320, 320, 326, 320, 316, 319, 307, 303, 301, 312, 310, 315, 320, 312, 322, 314, 315, 311, 328, 327, 316, 308, 319, 313, 311, 337, 333, 333, 319, 323, 335, 320, 311, 334, 329, 344, 330, 342, 331, 331, 312, 337, 325, 327, 337, 327, 327, 323, 329, 344, 347, 353, 341, 327, 332, 334, 324, 339, 341, 337, 323, 325, 557, 557, 576, 563, 556, 552, 557, 561, 568, 558, 567, 573, 562, 575, 555, 573, 571, 572, 591, 568, 575, 570, 576, 575, 580, 586, 575, 587, 583, 562, 563, 563, 592, 574, 586, 578, 576, 587, 579, 567, 587, 589, 577, 589, 580, 583, 570, 575, 578, 588, 575, 576, 581, 575, 566, 563, 559, 584, 575, 576, 583, 587, 575, 560, -64, -64, -64, -64, -64, -64, -64, -64, -73, -64, -61, -64, -62, -78, -76, -84, -94, -72, -82, -69, -92, -75, -65, -77, -66, -81, -48, -70, -43, -65, -52, -66, -44, -50, -32, -57, -54, -48, -43, -55, -46, -56, -42, -59, -47, -47, -59, -50, -32, -50, -34, -57, -17, -40, -47, -42, -64, -64, -64, -64, -64, -64, -64, -64, -146, -190, -192, -188, -190, -200, -197, -131, -192, -192, -216, -178, -192, -207, -171, -197, -203, -192, -222, -192, -231, -206, -196, -193, -203, -207, -205, -219, -218, -204, -187, -193, -195, -185, -200, -196, -215, -200, -202, -184, -186, -191, -209, -201, -197, -191, -184, -170, -182, -199, -179, -193, -185, -176, -191, -183, -180, -161, -188, -168, -185, -183, -147, -187, -202, -178, -192, -196, -199, -198, -202, -185, -186, -192, -199, -192, -203, -209, -186, -210, -214, -213, -230, -202, -218, -206, -224, -200, -204, -224, -204, -206, -216, -205, -191, -215, -206, -198, -219, -193, -219, -213, -201, -174, -200, -205, -203, -231, -210, -225, -200, -223, -194, -205, -188, -199, -211, -202, -222, -196, -196, -190, -173, -195, -187, -189, -194, -186, -332, -320, -320, -320, -340, -344, -327, -334, -338, -351, -320, -327, -354, -343, -345, -335, -333, -339, -317, -327, -324, -337, -326, -343, -327, -333, -331, -329, -328, -334, -320, -334, -319, -325, -314, -316, -320, -322, -320, -314, -322, -304, -312, -323, -314, -320, -316, -308, -306, -319, -308, -306, -308, -303, -316, -314, -285, -324, -307, -321, -317, -321, -313, -290, -599, -576, -576, -576, -587, -583, -573, -580, -628, -576, -576, -576, -608, -585, -566, -567, -582, -606, -609, -612, -586, -590, -574, -565, -607, -605, -600, -596, -590, -591, -578, -562, -583, -586, -587, -582, -604, -572, -576, -570, -593, -580, -579, -578, -580, -579, -573, -584, -582, -574, -575, -583, -585, -583, -583, -575, -579, -573, -557, -582, -574, -574, -569, -592, 64, 64, 64, 64, 64, 64, 64, 64, 107, 117, 79, 67, 48, 54, 65, 61, 98, 98, 51, 62, 63, 56, 57, 44, 80, 78, 58, 61, 72, 59, 67, 45, 85, 66, 61, 67, 67, 67, 63, 54, 89, 81, 86, 85, 93, 92, 75, 70, 64, 73, 89, 106, 112, 104, 105, 122, 64, 64, 64, 64, 64, 64, 64, 64, 151, 192, 204, 185, 180, 173, 203, 182, 190, 195, 200, 212, 208, 193, 181, 171, 187, 213, 215, 209, 215, 208, 198, 192, 205, 204, 215, 218, 214, 223, 202, 203, 214, 210, 232, 233, 236, 234, 218, 209, 206, 236, 236, 259, 241, 237, 230, 197, 183, 209, 230, 209, 216, 227, 194, 189, 143, 196, 152, 202, 176, 198, 187, 124, 211, 192, 249, 209, 213, 234, 222, 212, 232, 252, 230, 235, 224, 236, 232, 228, 245, 228, 234, 230, 240, 231, 230, 235, 217, 228, 239, 244, 237, 238, 239, 231, 232, 233, 244, 248, 247, 247, 241, 235, 225, 249, 265, 256, 250, 250, 244, 236, 204, 212, 220, 233, 217, 226, 230, 201, 214, 210, 185, 198, 192, 209, 211, 203, 268, 320, 326, 335, 334, 327, 322, 336, 316, 325, 316, 314, 324, 316, 311, 310, 326, 319, 309, 316, 314, 315, 319, 304, 303, 310, 307, 316, 327, 315, 319, 320, 312, 308, 323, 328, 333, 332, 325, 329, 320, 324, 348, 345, 336, 344, 342, 344, 345, 351, 358, 348, 357, 350, 343, 343, 340, 335, 352, 359, 368, 356, 353, 353, 556, 576, 583, 590, 603, 587, 583, 603, 540, 572, 588, 602, 592, 596, 597, 585, 585, 591, 604, 592, 597, 596, 597, 594, 593, 602, 593, 599, 604, 598, 598, 601, 613, 589, 607, 615, 601, 609, 605, 597, 599, 621, 625, 618, 609, 615, 593, 600, 614, 607, 613, 593, 593, 613, 603, 601, 609, 605, 608, 597, 592, 605, 599, 595, -64, -64, -64, -64, -64, -64, -64, -64, -64, -42, -64, -103, -110, -116, -109, -107, -54, -81, -92, -69, -79, -76, -75, -64, -39, -63, -81, -76, -49, -58, -62, -53, -27, -60, -63, -67, -63, -51, -54, -44, -30, -52, -57, -65, -49, -46, -54, -39, -16, -53, -53, -60, -33, -35, -53, -28, -64, -64, -64, -64, -64, -64, -64, -64, -159, -192, -132, -189, -174, -201, -194, -101, -184, -205, -186, -192, -222, -204, -185, -181, -192, -212, -192, -235, -223, -231, -224, -197, -206, -185, -234, -202, -230, -219, -193, -209, -185, -193, -211, -209, -210, -210, -199, -196, -175, -207, -202, -213, -208, -205, -195, -170, -195, -200, -205, -200, -198, -197, -180, -166, -158, -171, -193, -190, -186, -173, -175, -158, -196, -192, -153, -191, -216, -199, -196, -160, -192, -194, -192, -217, -204, -227, -215, -216, -240, -246, -240, -209, -234, -218, -238, -209, -210, -226, -228, -230, -237, -228, -212, -221, -232, -217, -227, -231, -244, -220, -214, -202, -227, -228, -228, -229, -234, -227, -226, -205, -238, -234, -231, -221, -212, -234, -226, -233, -210, -217, -197, -206, -208, -203, -224, -217, -320, -320, -320, -354, -356, -357, -350, -348, -350, -320, -346, -338, -346, -344, -324, -336, -320, -325, -329, -319, -334, -336, -346, -327, -316, -308, -316, -319, -331, -336, -324, -324, -296, -303, -296, -310, -328, -314, -317, -312, -293, -307, -299, -307, -310, -317, -303, -304, -295, -319, -308, -312, -313, -317, -307, -302, -285, -306, -303, -307, -314, -313, -302, -294, -576, -576, -576, -584, -577, -568, -570, -493, -576, -576, -576, -563, -560, -549, -516, -518, -606, -588, -606, -600, -566, -532, -552, -540, -571, -549, -558, -534, -556, -558, -538, -551, -577, -568, -562, -561, -570, -548, -548, -541, -567, -565, -560, -561, -557, -564, -553, -553, -587, -572, -570, -557, -570, -566, -559, -555, -566, -558, -545, -561, -563, -551, -548, -559, 64, 64, 64, 64, 64, 64, 64, 64, 90, 96, 48, 56, 40, 73, 64, 78, 77, 73, 48, 57, 76, 66, 62, 64, 51, 62, 57, 64, 77, 55, 59, 61, 61, 63, 66, 75, 65, 67, 68, 68, 67, 70, 72, 98, 86, 88, 84, 81, 70, 70, 75, 82, 77, 79, 79, 81, 64, 64, 64, 64, 64, 64, 64, 64, 192, 200, 169, 189, 165, 184, 167, 183, 199, 174, 189, 202, 192, 186, 179, 175, 199, 204, 213, 206, 198, 197, 187, 179, 207, 210, 208, 226, 209, 217, 189, 183, 200, 225, 236, 230, 234, 217, 210, 191, 200, 206, 228, 221, 224, 201, 198, 197, 174, 198, 222, 206, 191, 207, 183, 186, 169, 196, 180, 197, 188, 200, 189, 161, 192, 222, 225, 203, 192, 208, 189, 189, 203, 218, 207, 206, 218, 216, 209, 209, 210, 214, 226, 222, 223, 219, 215, 206, 208, 219, 224, 224, 230, 226, 195, 193, 211, 225, 221, 224, 222, 212, 203, 203, 216, 212, 223, 213, 214, 216, 215, 197, 187, 207, 204, 196, 198, 203, 203, 190, 190, 193, 175, 189, 192, 196, 203, 198, 320, 333, 338, 331, 326, 327, 320, 331, 318, 312, 321, 316, 317, 319, 314, 309, 324, 318, 320, 315, 328, 315, 317, 319, 316, 310, 304, 326, 320, 316, 323, 324, 312, 321, 336, 326, 325, 333, 312, 318, 336, 325, 339, 335, 328, 318, 321, 328, 331, 331, 343, 346, 349, 335, 329, 333, 321, 324, 324, 328, 329, 339, 316, 327, 576, 582, 586, 592, 586, 562, 558, 576, 566, 587, 584, 600, 582, 584, 576, 558, 583, 599, 601, 592, 593, 584, 588, 573, 591, 603, 595, 595, 597, 595, 581, 581, 614, 597, 595, 602, 598, 585, 590, 559, 582, 599, 595, 602, 589, 595, 575, 580, 588, 606, 613, 592, 596, 587, 590, 572, 587, 584, 585, 585, 571, 578, 588, 566, -64, -64, -64, -64, -64, -64, -64, -64, -12, -64, -81, -94, -91, -81, -84, -73, -58, -71, -73, -76, -84, -79, -59, -74, -42, -80, -74, -75, -51, -51, -62, -61, -44, -65, -56, -55, -58, -47, -49, -50, -38, -60, -47, -64, -47, -46, -55, -48, -32, -55, -44, -57, -28, -42, -43, -38, -64, -64, -64, -64, -64, -64, -64, -64, -192, -190, -191, -196, -201, -179, -198, -142, -195, -196, -192, -202, -194, -203, -184, -176, -191, -192, -222, -226, -228, -199, -205, -194, -195, -224, -218, -226, -193, -195, -196, -188, -192, -191, -214, -199, -197, -189, -185, -166, -184, -191, -193, -193, -201, -186, -170, -147, -182, -186, -185, -182, -173, -167, -171, -167, -184, -156, -172, -180, -172, -173, -121, -177, -192, -189, -195, -195, -188, -195, -201, -193, -210, -192, -182, -205, -195, -198, -192, -191, -224, -211, -215, -217, -214, -209, -208, -191, -197, -215, -211, -222, -211, -208, -184, -203, -184, -200, -211, -220, -225, -206, -184, -178, -192, -213, -203, -217, -208, -222, -203, -195, -193, -205, -210, -200, -198, -194, -206, -194, -182, -189, -162, -187, -182, -170, -191, -192, -320, -320, -326, -348, -332, -333, -326, -324, -320, -354, -340, -364, -348, -344, -326, -328, -319, -326, -327, -343, -334, -323, -329, -327, -320, -327, -327, -324, -326, -330, -320, -327, -311, -328, -306, -317, -333, -315, -308, -317, -312, -312, -313, -310, -313, -314, -311, -311, -313, -327, -311, -305, -310, -311, -300, -302, -286, -320, -305, -308, -306, -308, -296, -284, -576, -576, -583, -585, -562, -574, -565, -559, -576, -576, -584, -582, -574, -571, -531, -540, -577, -608, -603, -562, -573, -553, -571, -549, -574, -581, -570, -563, -570, -574, -547, -561, -575, -580, -579, -565, -564, -560, -565, -544, -573, -569, -562, -573, -559, -578, -555, -564, -582, -579, -566, -563, -563, -570, -560, -557, -569, -577, -553, -571, -556, -556, -552, -564, 64, 64, 64, 64, 64, 64, 64, 64, 82, 82, 73, 48, 72, 94, 95, 64, 73, 68, 73, 63, 73, 68, 82, 85, 67, 66, 65, 71, 65, 62, 62, 70, 61, 69, 74, 63, 76, 65, 67, 69, 61, 67, 60, 67, 70, 69, 68, 64, 68, 62, 68, 62, 59, 62, 64, 66, 64, 64, 64, 64, 64, 64, 64, 64, 192, 185, 186, 191, 189, 192, 196, 196, 192, 190, 198, 191, 199, 194, 189, 192, 186, 187, 191, 193, 193, 201, 194, 189, 187, 193, 200, 200, 200, 189, 200, 202, 188, 193, 189, 198, 195, 205, 204, 188, 190, 190, 194, 202, 197, 201, 193, 191, 194, 196, 194, 193, 197, 193, 189, 189, 192, 192, 194, 194, 192, 189, 192, 196, 196, 194, 197, 195, 199, 194, 194, 194, 188, 189, 194, 197, 203, 190, 208, 192, 187, 188, 196, 201, 207, 206, 197, 179, 186, 192, 201, 194, 198, 207, 195, 195, 193, 182, 195, 184, 206, 203, 194, 195, 202, 192, 199, 188, 187, 188, 191, 196, 188, 194, 188, 190, 194, 200, 194, 195, 192, 192, 194, 192, 187, 192, 192, 196, 328, 326, 330, 332, 330, 330, 317, 311, 324, 328, 323, 324, 318, 311, 316, 320, 319, 320, 316, 330, 319, 328, 325, 319, 314, 321, 323, 328, 317, 328, 323, 323, 318, 320, 331, 324, 329, 324, 320, 324, 324, 316, 328, 325, 321, 322, 326, 325, 325, 326, 327, 326, 336, 324, 330, 309, 314, 325, 318, 316, 320, 313, 322, 320, 577, 573, 579, 568, 583, 574, 574, 576, 572, 584, 577, 578, 583, 578, 575, 576, 575, 581, 578, 581, 584, 572, 574, 575, 574, 581, 578, 582, 586, 587, 581, 572, 577, 578, 576, 583, 584, 576, 578, 571, 580, 585, 589, 583, 579, 578, 583, 580, 581, 577, 581, 580, 581, 577, 572, 581, 574, 580, 578, 581, 584, 580, 578, 576, -64, -64, -64, -64, -64, -64, -64, -64, -68, -63, -62, -73, -69, -71, -66, -64, -64, -74, -62, -67, -65, -66, -64, -53, -65, -80, -66, -73, -58, -66, -54, -62, -57, -60, -62, -56, -65, -56, -74, -48, -51, -56, -47, -72, -57, -49, -44, -53, -41, -42, -38, -69, -53, -41, -43, -49, -64, -64, -64, -64, -64, -64, -64, -64, -191, -194, -194, -192, -188, -192, -192, -190, -194, -190, -196, -192, -199, -195, -192, -192, -194, -181, -190, -189, -198, -192, -193, -195, -193, -191, -197, -189, -184, -190, -192, -193, -182, -192, -204, -196, -195, -193, -195, -190, -184, -189, -186, -191, -187, -200, -193, -196, -187, -190, -192, -187, -185, -191, -192, -198, -194, -180, -187, -195, -201, -189, -185, -192, -196, -192, -190, -196, -192, -190, -192, -192, -189, -195, -187, -192, -194, -193, -194, -192, -198, -183, -192, -194, -207, -199, -192, -201, -190, -196, -198, -192, -197, -198, -190, -191, -194, -187, -198, -199, -186, -179, -188, -186, -193, -194, -195, -201, -184, -196, -194, -196, -195, -198, -192, -188, -200, -186, -198, -190, -187, -192, -189, -185, -188, -179, -192, -184, -318, -318, -323, -316, -330, -329, -322, -320, -324, -323, -321, -328, -334, -312, -320, -320, -317, -323, -338, -325, -328, -324, -323, -320, -323, -322, -324, -321, -319, -323, -325, -312, -317, -315, -325, -315, -316, -317, -310, -324, -325, -319, -319, -316, -321, -328, -310, -327, -317, -318, -312, -304, -321, -314, -306, -320, -304, -310, -306, -302, -306, -310, -323, -300, -563, -572, -572, -566, -572, -578, -576, -576, -573, -573, -570, -573, -576, -574, -576, -576, -574, -574, -573, -575, -572, -584, -576, -576, -569, -577, -585, -577, -579, -579, -573, -584, -570, -576, -570, -575, -577, -581, -574, -572, -574, -575, -576, -575, -570, -578, -580, -580, -572, -568, -580, -561, -584, -577, -581, -576, -578, -578, -570, -572, -578, -567, -571, -574, 64, 64, 64, 64, 64, 64, 64, 64, 87, 85, 75, 42, 74, 99, 64, 79, 72, 76, 77, 66, 64, 69, 99, 71, 70, 71, 63, 75, 72, 63, 94, 77, 71, 65, 70, 70, 73, 84, 72, 83, 73, 68, 57, 82, 67, 80, 65, 76, 56, 59, 70, 59, 71, 61, 64, 65, 64, 64, 64, 64, 64, 64, 64, 64, 192, 168, 184, 183, 175, 175, 195, 190, 178, 190, 186, 202, 187, 195, 192, 177, 191, 182, 195, 196, 194, 197, 188, 197, 186, 198, 217, 216, 212, 201, 198, 199, 191, 192, 201, 213, 219, 216, 209, 196, 195, 196, 203, 201, 195, 203, 198, 188, 185, 197, 200, 195, 200, 206, 186, 190, 197, 192, 192, 192, 197, 196, 186, 192, 191, 193, 191, 191, 195, 194, 192, 186, 193, 190, 196, 203, 195, 193, 192, 188, 200, 188, 195, 213, 208, 207, 201, 192, 192, 187, 209, 214, 209, 221, 193, 203, 199, 189, 207, 204, 204, 212, 203, 189, 189, 199, 187, 207, 207, 214, 199, 191, 196, 198, 205, 203, 190, 199, 193, 195, 192, 197, 194, 190, 191, 190, 193, 199, 333, 325, 327, 336, 331, 325, 316, 337, 317, 318, 322, 322, 330, 323, 320, 318, 318, 313, 311, 311, 325, 317, 315, 323, 317, 327, 329, 328, 328, 322, 324, 326, 323, 335, 311, 327, 326, 325, 316, 330, 328, 336, 334, 329, 334, 326, 328, 317, 329, 331, 332, 330, 344, 329, 345, 330, 330, 322, 318, 327, 336, 331, 319, 332, 573, 577, 578, 570, 558, 569, 571, 574, 576, 574, 572, 566, 574, 557, 576, 570, 587, 579, 578, 580, 577, 585, 570, 574, 575, 576, 580, 577, 576, 573, 583, 583, 574, 572, 588, 576, 576, 578, 567, 573, 581, 591, 580, 582, 583, 579, 569, 575, 572, 576, 581, 581, 579, 584, 572, 583, 576, 576, 580, 573, 574, 579, 577, 581, -64, -64, -64, -64, -64, -64, -64, -64, -67, -72, -74, -71, -71, -70, -64, -70, -70, -75, -66, -67, -67, -64, -58, -64, -72, -63, -52, -56, -76, -50, -54, -48, -56, -58, -48, -59, -52, -53, -49, -56, -50, -52, -50, -54, -48, -55, -49, -46, -36, -40, -48, -71, -41, -41, -41, -33, -64, -64, -64, -64, -64, -64, -64, -64, -191, -194, -196, -190, -192, -190, -192, -165, -183, -191, -191, -190, -191, -202, -192, -181, -192, -194, -193, -196, -192, -205, -187, -183, -187, -198, -192, -215, -198, -192, -187, -192, -189, -202, -199, -192, -198, -197, -184, -194, -189, -188, -211, -186, -195, -200, -180, -181, -185, -185, -202, -189, -189, -188, -187, -196, -188, -167, -178, -182, -185, -186, -162, -194, -195, -190, -190, -192, -186, -192, -196, -192, -194, -186, -204, -197, -202, -192, -192, -138, -195, -198, -205, -210, -197, -192, -202, -192, -196, -198, -203, -196, -208, -194, -219, -202, -199, -198, -197, -208, -188, -217, -191, -196, -202, -191, -199, -207, -213, -195, -199, -189, -185, -208, -193, -205, -183, -193, -182, -202, -186, -190, -177, -188, -190, -165, -186, -188, -316, -314, -322, -320, -328, -321, -320, -324, -324, -323, -318, -330, -333, -320, -320, -320, -319, -330, -324, -326, -327, -324, -320, -318, -313, -328, -325, -331, -330, -323, -312, -323, -316, -322, -324, -322, -322, -319, -316, -314, -311, -322, -316, -319, -318, -316, -307, -309, -325, -298, -306, -322, -312, -311, -308, -305, -295, -302, -311, -306, -301, -309, -318, -290, -566, -571, -575, -582, -582, -576, -576, -576, -567, -571, -568, -570, -576, -576, -576, -576, -576, -570, -582, -569, -574, -576, -576, -576, -583, -579, -563, -570, -582, -598, -581, -588, -578, -570, -576, -574, -577, -582, -578, -587, -570, -572, -597, -578, -576, -572, -585, -566, -578, -570, -563, -580, -579, -583, -571, -566, -576, -574, -581, -583, -591, -578, -582, -576, 64, 64, 64, 64, 64, 64, 64, 64, 85, 84, 75, 57, 60, 64, 91, 82, 74, 74, 81, 72, 57, 93, 77, 69, 62, 70, 74, 90, 71, 71, 88, 76, 59, 66, 68, 60, 77, 89, 85, 73, 59, 67, 62, 81, 71, 64, 51, 70, 64, 60, 65, 65, 75, 65, 70, 74, 64, 64, 64, 64, 64, 64, 64, 64, 184, 176, 194, 183, 181, 178, 178, 188, 178, 188, 206, 188, 207, 192, 188, 181, 190, 198, 197, 204, 197, 215, 196, 196, 194, 195, 204, 201, 206, 221, 195, 196, 186, 197, 211, 207, 217, 208, 207, 204, 185, 203, 201, 208, 211, 203, 201, 193, 197, 193, 205, 200, 198, 195, 194, 182, 188, 198, 201, 188, 192, 190, 193, 175, 185, 194, 203, 188, 180, 209, 185, 178, 191, 192, 196, 201, 204, 192, 198, 201, 201, 197, 207, 231, 210, 216, 188, 205, 195, 202, 212, 212, 213, 226, 206, 180, 198, 192, 204, 206, 217, 213, 206, 193, 196, 193, 212, 216, 208, 200, 201, 205, 195, 198, 203, 193, 185, 197, 199, 195, 188, 197, 191, 200, 191, 194, 201, 198, 326, 324, 325, 331, 324, 312, 320, 334, 314, 334, 331, 328, 319, 320, 304, 321, 310, 315, 321, 323, 313, 312, 312, 331, 315, 317, 329, 323, 332, 326, 318, 324, 319, 327, 337, 337, 332, 341, 318, 327, 325, 323, 322, 340, 341, 326, 316, 342, 331, 334, 355, 337, 348, 340, 347, 328, 325, 328, 331, 321, 328, 323, 325, 326, 596, 586, 566, 565, 563, 559, 562, 563, 582, 568, 573, 567, 559, 576, 559, 574, 573, 563, 578, 573, 565, 567, 573, 573, 575, 574, 565, 567, 571, 579, 564, 546, 570, 569, 577, 580, 570, 582, 565, 573, 578, 575, 579, 582, 584, 572, 569, 569, 581, 579, 581, 580, 574, 564, 578, 570, 572, 577, 580, 583, 581, 569, 576, 572, -64, -64, -64, -64, -64, -64, -64, -64, -84, -71, -69, -64, -66, -64, -68, -69, -63, -65, -71, -76, -64, -53, -64, -61, -68, -74, -62, -64, -65, -55, -67, -72, -55, -56, -48, -45, -72, -35, -57, -54, -46, -57, -45, -56, -60, -38, -56, -49, -36, -41, -47, -56, -34, -34, -41, -34, -64, -64, -64, -64, -64, -64, -64, -64, -164, -198, -187, -192, -189, -180, -190, -192, -188, -197, -211, -198, -184, -192, -203, -190, -188, -196, -184, -192, -214, -204, -194, -192, -196, -215, -205, -227, -192, -206, -192, -184, -184, -193, -197, -195, -200, -207, -197, -186, -183, -195, -186, -188, -196, -188, -186, -174, -179, -186, -188, -180, -174, -182, -189, -193, -183, -160, -194, -184, -181, -188, -168, -194, -195, -188, -198, -191, -192, -188, -192, -186, -194, -205, -190, -222, -194, -192, -198, -179, -205, -198, -203, -215, -192, -201, -192, -185, -184, -216, -195, -196, -202, -226, -201, -193, -196, -194, -214, -191, -218, -189, -214, -179, -191, -199, -182, -213, -189, -213, -189, -198, -197, -188, -203, -184, -204, -188, -200, -192, -196, -198, -171, -188, -185, -189, -176, -185, -319, -317, -323, -318, -316, -320, -328, -332, -331, -332, -330, -325, -320, -320, -320, -308, -339, -315, -330, -341, -328, -320, -335, -333, -320, -321, -328, -313, -325, -323, -319, -322, -324, -322, -309, -326, -319, -311, -326, -308, -326, -318, -326, -313, -310, -307, -312, -317, -315, -311, -321, -311, -302, -307, -314, -307, -296, -315, -306, -312, -303, -317, -304, -301, -585, -567, -609, -587, -576, -576, -576, -574, -562, -576, -589, -587, -576, -576, -576, -595, -581, -590, -578, -573, -576, -576, -576, -612, -592, -585, -588, -573, -602, -593, -598, -576, -569, -567, -574, -584, -585, -590, -584, -582, -580, -570, -595, -593, -590, -572, -606, -575, -572, -581, -572, -608, -592, -580, -579, -580, -569, -574, -581, -582, -601, -580, -587, -582, 64, 64, 64, 64, 64, 64, 64, 64, 76, 78, 84, 44, 64, 82, 80, 84, 56, 74, 77, 94, 102, 77, 84, 75, 70, 81, 74, 86, 94, 69, 84, 74, 68, 67, 83, 67, 79, 84, 74, 77, 53, 70, 79, 70, 68, 77, 78, 69, 69, 80, 75, 67, 66, 70, 74, 75, 64, 64, 64, 64, 64, 64, 64, 64, 185, 179, 178, 177, 177, 176, 159, 178, 184, 184, 191, 205, 192, 181, 183, 183, 191, 198, 202, 200, 211, 210, 191, 178, 203, 184, 205, 215, 224, 204, 197, 201, 198, 200, 213, 221, 210, 214, 218, 203, 192, 205, 211, 205, 215, 209, 195, 196, 187, 201, 196, 191, 186, 208, 207, 189, 174, 194, 186, 192, 195, 198, 196, 155, 190, 190, 192, 179, 192, 157, 194, 196, 199, 197, 209, 213, 192, 193, 200, 188, 205, 215, 222, 218, 216, 203, 202, 208, 202, 216, 221, 213, 222, 221, 209, 200, 193, 217, 208, 217, 215, 214, 210, 189, 207, 202, 208, 211, 221, 211, 204, 210, 190, 203, 199, 202, 192, 213, 210, 195, 198, 202, 189, 192, 215, 199, 198, 201, 327, 310, 333, 324, 287, 322, 320, 321, 308, 311, 319, 325, 320, 310, 309, 302, 321, 303, 309, 313, 304, 321, 321, 326, 320, 307, 327, 319, 327, 317, 323, 316, 330, 328, 321, 328, 341, 340, 333, 332, 339, 318, 324, 317, 328, 336, 336, 340, 352, 331, 344, 338, 343, 343, 334, 344, 336, 335, 338, 340, 332, 333, 330, 323, 571, 563, 553, 554, 519, 554, 556, 539, 567, 573, 560, 551, 576, 537, 560, 560, 578, 565, 564, 566, 545, 558, 539, 570, 576, 577, 574, 565, 567, 553, 562, 547, 574, 576, 584, 575, 576, 584, 555, 562, 592, 582, 589, 579, 581, 575, 577, 577, 581, 584, 583, 572, 578, 571, 566, 557, 577, 581, 577, 579, 578, 582, 570, 567, -64, -64, -64, -64, -64, -64, -64, -64, -83, -75, -79, -62, -64, -79, -67, -85, -72, -67, -61, -64, -41, -64, -66, -75, -75, -67, -58, -51, -53, -62, -66, -64, -52, -62, -39, -65, -34, -56, -48, -49, -41, -56, -42, -55, -40, -50, -56, -44, -34, -46, -32, -55, -32, -41, -41, -33, -64, -64, -64, -64, -64, -64, -64, -64, -167, -203, -192, -187, -176, -181, -192, -84, -194, -186, -214, -186, -192, -186, -190, -176, -190, -202, -192, -214, -230, -217, -192, -186, -200, -216, -204, -192, -231, -192, -202, -189, -199, -202, -209, -204, -205, -208, -200, -207, -190, -193, -212, -203, -210, -208, -201, -178, -188, -186, -205, -197, -196, -184, -200, -188, -185, -175, -183, -173, -193, -186, -166, -181, -185, -186, -195, -192, -187, -192, -185, -196, -194, -196, -219, -198, -192, -195, -200, -172, -183, -204, -209, -192, -215, -192, -193, -217, -206, -207, -195, -213, -227, -216, -227, -187, -187, -195, -208, -226, -207, -228, -204, -188, -214, -194, -220, -206, -229, -202, -217, -196, -184, -227, -195, -216, -197, -205, -200, -198, -201, -193, -189, -185, -203, -167, -194, -197, -324, -340, -317, -327, -320, -335, -323, -327, -330, -322, -337, -320, -320, -320, -316, -329, -336, -332, -332, -320, -320, -336, -335, -332, -327, -331, -318, -327, -315, -332, -319, -328, -320, -315, -330, -327, -314, -326, -313, -334, -316, -327, -315, -316, -303, -323, -314, -310, -307, -304, -314, -318, -305, -309, -313, -312, -289, -308, -312, -318, -309, -316, -315, -289, -585, -583, -593, -576, -576, -576, -580, -565, -577, -575, -616, -576, -576, -576, -591, -572, -569, -601, -579, -576, -576, -576, -587, -600, -615, -580, -566, -575, -620, -608, -601, -597, -574, -584, -583, -599, -606, -602, -590, -617, -585, -581, -602, -607, -604, -585, -624, -577, -574, -567, -574, -608, -591, -611, -581, -575, -575, -578, -579, -592, -618, -594, -594, -586, 64, 64, 64, 64, 64, 64, 64, 64, 74, 83, 89, 64, 42, 66, 88, 85, 68, 76, 80, 107, 78, 71, 77, 71, 66, 78, 81, 94, 84, 60, 83, 75, 74, 80, 68, 81, 58, 66, 74, 74, 78, 67, 71, 65, 73, 70, 71, 75, 64, 71, 63, 68, 69, 79, 75, 79, 64, 64, 64, 64, 64, 64, 64, 64, 187, 164, 184, 182, 178, 171, 165, 171, 185, 187, 203, 192, 202, 188, 191, 191, 190, 186, 203, 215, 208, 204, 197, 185, 198, 202, 212, 226, 199, 215, 213, 189, 191, 210, 227, 193, 239, 215, 206, 199, 202, 206, 205, 215, 216, 213, 213, 198, 187, 197, 194, 197, 207, 194, 195, 179, 167, 192, 186, 187, 195, 199, 199, 157, 204, 205, 158, 192, 174, 202, 179, 192, 195, 203, 192, 192, 208, 200, 210, 193, 205, 204, 221, 224, 218, 214, 218, 203, 186, 208, 215, 229, 219, 221, 207, 205, 194, 210, 212, 215, 222, 217, 215, 184, 202, 197, 216, 221, 204, 219, 224, 215, 189, 200, 200, 188, 205, 205, 222, 180, 196, 193, 199, 189, 191, 209, 200, 191, 325, 325, 314, 303, 328, 328, 317, 325, 316, 312, 310, 320, 316, 313, 308, 303, 324, 317, 309, 317, 311, 321, 315, 321, 327, 320, 328, 332, 322, 338, 329, 311, 334, 325, 333, 323, 339, 335, 327, 326, 335, 330, 333, 342, 336, 346, 340, 350, 340, 337, 347, 340, 353, 355, 349, 341, 335, 327, 319, 327, 348, 336, 318, 337, 573, 582, 558, 569, 524, 547, 560, 562, 580, 567, 570, 576, 547, 548, 565, 578, 569, 573, 552, 551, 557, 565, 554, 571, 573, 587, 567, 564, 572, 570, 567, 562, 582, 566, 582, 564, 572, 588, 568, 559, 575, 581, 592, 584, 570, 580, 572, 560, 577, 596, 584, 571, 575, 577, 573, 546, 580, 578, 582, 579, 577, 581, 570, 568, -64, -64, -64, -64, -64, -64, -64, -64, -78, -78, -89, -64, -67, -80, -87, -81, -70, -66, -64, -40, -64, -72, -73, -72, -59, -62, -57, -61, -53, -73, -54, -71, -42, -57, -53, -36, -62, -38, -53, -45, -46, -59, -49, -41, -49, -45, -62, -46, -34, -50, -39, -51, -35, -44, -49, -36, -64, -64, -64, -64, -64, -64, -64, -64, -129, -192, -181, -190, -183, -192, -186, -124, -189, -197, -198, -192, -200, -197, -176, -189, -191, -192, -238, -199, -233, -192, -214, -186, -194, -200, -192, -227, -192, -201, -204, -188, -202, -202, -201, -211, -212, -215, -198, -212, -179, -186, -199, -199, -186, -199, -197, -179, -188, -192, -193, -192, -196, -178, -181, -187, -187, -173, -177, -181, -174, -189, -159, -185, -185, -194, -192, -198, -192, -203, -194, -184, -191, -200, -184, -192, -201, -202, -183, -198, -221, -217, -192, -206, -192, -211, -213, -194, -198, -234, -211, -229, -211, -205, -200, -210, -204, -201, -239, -208, -227, -198, -220, -182, -187, -210, -193, -237, -198, -224, -194, -220, -184, -202, -200, -194, -224, -183, -225, -192, -200, -196, -175, -193, -187, -201, -181, -188, -329, -329, -322, -320, -333, -343, -342, -339, -307, -309, -320, -320, -320, -320, -327, -331, -328, -328, -329, -320, -321, -336, -324, -340, -321, -320, -343, -316, -321, -335, -331, -321, -314, -307, -307, -316, -311, -318, -315, -317, -307, -319, -320, -303, -303, -309, -321, -319, -311, -316, -307, -303, -309, -312, -320, -304, -293, -300, -311, -312, -305, -311, -309, -296, -575, -597, -576, -576, -576, -596, -597, -591, -579, -596, -576, -576, -576, -597, -588, -574, -597, -605, -576, -576, -576, -613, -575, -601, -620, -577, -587, -599, -617, -581, -596, -577, -588, -599, -586, -611, -613, -574, -574, -606, -581, -595, -598, -593, -606, -607, -603, -584, -578, -592, -588, -607, -608, -608, -586, -585, -572, -573, -579, -582, -584, -588, -572, -584, 64, 64, 64, 64, 64, 64, 64, 64, 78, 80, 64, 54, 49, 77, 83, 86, 74, 76, 87, 64, 77, 74, 74, 70, 70, 77, 72, 87, 80, 64, 79, 73, 74, 84, 66, 78, 67, 70, 69, 79, 71, 76, 74, 74, 77, 60, 75, 75, 65, 65, 69, 30, 66, 75, 83, 84, 64, 64, 64, 64, 64, 64, 64, 64, 188, 183, 173, 175, 193, 187, 165, 190, 176, 195, 192, 197, 191, 192, 193, 183, 184, 195, 237, 205, 215, 229, 195, 183, 197, 191, 203, 219, 207, 211, 204, 162, 197, 207, 216, 210, 228, 212, 217, 189, 202, 198, 216, 205, 226, 208, 199, 204, 194, 207, 184, 203, 205, 212, 206, 197, 167, 196, 191, 205, 198, 201, 189, 141, 195, 181, 203, 182, 200, 225, 206, 199, 192, 216, 192, 211, 213, 207, 207, 201, 204, 215, 225, 221, 226, 220, 224, 204, 200, 208, 231, 217, 219, 227, 217, 200, 205, 220, 213, 224, 222, 208, 222, 202, 207, 204, 220, 208, 213, 208, 205, 211, 199, 204, 197, 203, 204, 201, 206, 197, 197, 189, 192, 199, 189, 203, 192, 193, 319, 315, 295, 327, 331, 316, 322, 320, 307, 323, 320, 308, 318, 306, 306, 317, 312, 297, 308, 308, 324, 316, 319, 320, 319, 321, 315, 327, 328, 327, 322, 325, 331, 327, 332, 336, 338, 339, 330, 323, 326, 334, 324, 347, 347, 353, 338, 337, 335, 322, 346, 343, 339, 352, 349, 333, 335, 324, 336, 326, 339, 333, 333, 336, 580, 561, 556, 558, 562, 557, 560, 571, 573, 558, 576, 555, 563, 571, 565, 570, 575, 573, 571, 569, 573, 570, 561, 577, 583, 563, 571, 584, 584, 568, 572, 558, 588, 579, 575, 585, 575, 578, 578, 568, 586, 566, 576, 580, 579, 575, 573, 568, 583, 599, 583, 573, 565, 587, 568, 569, 586, 580, 582, 568, 577, 585, 586, 566, -64, -64, -64, -64, -64, -64, -64, -64, -80, -71, -64, -52, -82, -81, -81, -82, -68, -64, -60, -64, -67, -65, -66, -71, -70, -66, -66, -68, -57, -60, -51, -68, -51, -63, -40, -65, -51, -50, -49, -54, -44, -54, -52, -55, -45, -45, -47, -48, -32, -43, -29, -57, -1, -37, -44, -37, -64, -64, -64, -64, -64, -64, -64, -64, -192, -194, -194, -194, -192, -194, -185, -149, -189, -211, -192, -188, -195, -202, -196, -186, -192, -202, -203, -223, -192, -208, -187, -188, -202, -192, -215, -192, -215, -218, -203, -190, -197, -200, -208, -208, -215, -221, -191, -189, -188, -201, -214, -203, -212, -204, -193, -180, -176, -186, -200, -194, -190, -190, -183, -183, -185, -182, -184, -193, -181, -172, -157, -182, -172, -192, -193, -192, -177, -206, -199, -185, -203, -184, -192, -181, -199, -188, -194, -186, -198, -192, -198, -192, -199, -219, -199, -195, -207, -218, -226, -214, -214, -207, -221, -201, -184, -214, -206, -234, -209, -234, -197, -224, -216, -200, -217, -198, -239, -211, -220, -187, -198, -231, -186, -220, -189, -224, -208, -193, -191, -189, -196, -180, -208, -165, -195, -182, -340, -330, -320, -328, -340, -336, -332, -328, -325, -320, -320, -320, -329, -338, -335, -321, -333, -324, -320, -339, -335, -331, -336, -341, -329, -328, -330, -331, -317, -336, -328, -331, -324, -322, -312, -321, -319, -334, -318, -320, -321, -309, -314, -318, -305, -312, -309, -311, -310, -306, -303, -319, -307, -317, -318, -314, -288, -315, -308, -314, -309, -314, -320, -290, -570, -576, -576, -576, -618, -587, -593, -563, -604, -576, -576, -576, -595, -588, -554, -567, -615, -576, -576, -576, -577, -603, -583, -567, -568, -606, -609, -597, -590, -610, -577, -602, -581, -605, -589, -594, -589, -573, -585, -586, -596, -589, -579, -590, -600, -598, -583, -591, -595, -579, -571, -590, -585, -599, -587, -581, -585, -574, -577, -568, -574, -575, -576, -586, 64, 64, 64, 64, 64, 64, 64, 64, 82, 64, 93, 70, 47, 71, 76, 85, 69, 109, 59, 68, 70, 65, 70, 72, 72, 89, 66, 79, 74, 66, 79, 69, 71, 75, 74, 81, 71, 69, 68, 70, 78, 88, 73, 87, 87, 79, 61, 86, 60, 71, 71, 72, 76, 78, 69, 86, 64, 64, 64, 64, 64, 64, 64, 64, 170, 193, 177, 179, 192, 178, 173, 180, 186, 192, 191, 193, 190, 182, 182, 183, 195, 195, 218, 198, 210, 203, 185, 184, 209, 209, 197, 212, 213, 225, 192, 181, 192, 210, 227, 220, 237, 213, 209, 192, 200, 207, 221, 217, 214, 216, 197, 192, 187, 194, 210, 204, 212, 202, 201, 205, 190, 189, 194, 192, 188, 191, 186, 166, 173, 178, 199, 182, 183, 198, 189, 177, 196, 192, 197, 205, 194, 204, 190, 199, 194, 200, 219, 205, 220, 198, 208, 193, 190, 206, 206, 234, 212, 211, 191, 202, 198, 208, 226, 215, 220, 216, 212, 197, 210, 208, 221, 214, 204, 212, 212, 211, 206, 209, 204, 205, 203, 195, 202, 183, 205, 194, 194, 192, 193, 196, 195, 198, 336, 304, 324, 331, 332, 322, 318, 328, 309, 320, 322, 324, 314, 325, 321, 308, 303, 329, 313, 317, 316, 318, 319, 311, 329, 321, 324, 331, 345, 324, 330, 335, 328, 334, 347, 336, 337, 330, 335, 333, 327, 334, 329, 342, 348, 338, 340, 335, 340, 341, 347, 355, 350, 343, 357, 351, 330, 338, 322, 337, 326, 343, 329, 332, 573, 558, 555, 559, 573, 553, 565, 568, 567, 576, 563, 581, 567, 574, 573, 564, 579, 582, 593, 577, 584, 578, 575, 586, 578, 595, 583, 599, 588, 585, 573, 582, 583, 583, 579, 593, 596, 580, 579, 573, 569, 600, 585, 601, 587, 601, 577, 573, 581, 588, 583, 586, 577, 573, 591, 568, 582, 583, 582, 594, 574, 585, 587, 579, -64, -64, -64, -64, -64, -64, -64, -64, -79, -64, -76, -75, -100, -84, -78, -86, -64, -54, -64, -75, -81, -78, -68, -83, -57, -70, -68, -73, -46, -62, -60, -59, -49, -56, -55, -58, -62, -56, -55, -53, -47, -45, -53, -64, -52, -49, -55, -55, -31, -46, -42, -64, -49, -49, -46, -40, -64, -64, -64, -64, -64, -64, -64, -64, -187, -181, -189, -192, -197, -189, -194, -178, -188, -192, -204, -188, -197, -206, -205, -187, -202, -187, -240, -192, -216, -209, -209, -196, -192, -209, -192, -209, -219, -214, -197, -197, -188, -193, -209, -208, -220, -196, -208, -190, -174, -201, -197, -208, -202, -198, -192, -173, -177, -193, -189, -197, -191, -190, -186, -185, -180, -183, -172, -193, -173, -178, -152, -183, -192, -191, -192, -202, -195, -193, -198, -190, -183, -192, -199, -217, -187, -208, -182, -201, -192, -193, -192, -206, -226, -203, -213, -196, -200, -261, -210, -233, -206, -222, -193, -213, -226, -204, -230, -198, -230, -192, -213, -186, -187, -207, -182, -223, -192, -218, -184, -212, -198, -190, -201, -189, -211, -187, -228, -199, -186, -189, -173, -199, -182, -191, -180, -189, -320, -320, -325, -340, -320, -321, -322, -322, -320, -320, -320, -331, -349, -339, -337, -322, -332, -320, -334, -338, -333, -337, -335, -329, -323, -318, -335, -327, -327, -335, -322, -322, -307, -307, -313, -318, -318, -324, -320, -320, -310, -301, -313, -321, -314, -312, -309, -322, -305, -308, -310, -314, -312, -322, -316, -308, -295, -297, -305, -303, -316, -311, -302, -288, -576, -576, -576, -574, -569, -564, -569, -565, -576, -576, -576, -575, -579, -579, -560, -554, -576, -576, -576, -582, -582, -574, -574, -553, -586, -581, -609, -568, -573, -572, -570, -579, -579, -575, -592, -567, -588, -582, -568, -568, -566, -588, -572, -583, -570, -589, -569, -571, -582, -571, -580, -569, -592, -582, -576, -558, -571, -573, -560, -567, -574, -572, -569, -580, 64, 64, 64, 64, 64, 64, 64, 64, 64, 99, 78, 65, 46, 69, 73, 82, 83, 84, 45, 60, 71, 62, 61, 64, 75, 59, 64, 74, 70, 65, 69, 67, 68, 65, 75, 82, 68, 64, 71, 74, 86, 75, 83, 87, 92, 76, 75, 71, 70, 56, 71, 75, 72, 80, 67, 76, 64, 64, 64, 64, 64, 64, 64, 64, 179, 180, 175, 186, 175, 170, 178, 193, 192, 173, 190, 206, 186, 178, 186, 180, 192, 194, 200, 205, 199, 196, 185, 171, 209, 191, 193, 214, 211, 204, 193, 191, 197, 211, 217, 232, 224, 208, 197, 199, 192, 197, 213, 193, 214, 192, 189, 184, 183, 197, 205, 200, 205, 198, 192, 182, 193, 191, 197, 200, 190, 190, 194, 184, 181, 176, 209, 194, 189, 209, 188, 192, 192, 221, 185, 200, 210, 196, 194, 193, 208, 203, 207, 216, 204, 210, 196, 191, 180, 202, 213, 208, 220, 207, 197, 174, 208, 211, 204, 223, 216, 214, 211, 205, 212, 209, 223, 196, 204, 212, 217, 193, 195, 199, 196, 192, 191, 196, 195, 198, 197, 198, 189, 187, 195, 200, 198, 195, 324, 327, 336, 329, 321, 321, 321, 323, 320, 324, 316, 322, 321, 321, 305, 310, 319, 320, 318, 320, 318, 321, 314, 307, 309, 324, 313, 328, 325, 323, 323, 321, 312, 331, 330, 325, 335, 341, 332, 328, 327, 326, 344, 324, 333, 333, 330, 323, 325, 340, 347, 353, 349, 348, 342, 337, 314, 318, 330, 328, 339, 332, 332, 329, 564, 574, 578, 573, 582, 564, 579, 572, 576, 568, 571, 592, 571, 580, 571, 568, 580, 586, 595, 583, 585, 596, 575, 581, 578, 589, 591, 601, 599, 582, 578, 577, 584, 591, 600, 609, 587, 595, 591, 581, 575, 578, 600, 605, 588, 594, 588, 582, 585, 580, 591, 586, 583, 591, 586, 578, 584, 573, 585, 575, 586, 581, 585, 582, -64, -64, -64, -64, -64, -64, -64, -64, -64, -71, -70, -77, -77, -86, -68, -84, -26, -64, -57, -81, -69, -79, -76, -77, -56, -58, -70, -78, -52, -56, -70, -68, -42, -69, -51, -65, -63, -51, -54, -58, -43, -54, -52, -63, -48, -55, -54, -48, -31, -47, -44, -53, -54, -47, -47, -38, -64, -64, -64, -64, -64, -64, -64, -64, -189, -194, -192, -197, -198, -184, -186, -185, -192, -185, -196, -210, -202, -193, -189, -184, -205, -207, -192, -214, -207, -201, -201, -197, -202, -192, -223, -214, -201, -199, -182, -195, -179, -202, -203, -205, -202, -196, -179, -181, -181, -198, -189, -195, -199, -192, -179, -166, -185, -181, -179, -186, -187, -172, -179, -177, -194, -177, -172, -175, -182, -171, -141, -192, -194, -192, -184, -194, -200, -200, -196, -190, -192, -193, -214, -193, -193, -196, -206, -193, -211, -192, -213, -220, -213, -201, -198, -195, -218, -222, -215, -214, -215, -202, -188, -197, -205, -206, -193, -223, -207, -207, -192, -182, -200, -194, -202, -198, -230, -201, -209, -201, -187, -196, -199, -204, -188, -204, -192, -194, -184, -188, -174, -191, -180, -168, -205, -190, -320, -320, -328, -331, -332, -323, -321, -318, -320, -320, -326, -338, -343, -342, -338, -325, -320, -334, -331, -340, -343, -324, -319, -326, -318, -321, -328, -333, -317, -335, -325, -322, -312, -302, -308, -325, -322, -318, -314, -303, -309, -306, -309, -309, -321, -314, -299, -314, -299, -316, -307, -318, -309, -318, -309, -312, -295, -314, -306, -298, -303, -316, -297, -284, -576, -576, -574, -570, -565, -567, -569, -568, -576, -576, -581, -564, -579, -558, -549, -565, -576, -576, -614, -592, -563, -572, -574, -558, -584, -596, -585, -587, -576, -561, -568, -559, -563, -589, -575, -582, -582, -569, -561, -565, -570, -570, -575, -563, -563, -579, -574, -560, -562, -580, -572, -570, -576, -574, -568, -567, -574, -579, -570, -568, -566, -554, -569, -567, 64, 64, 64, 64, 64, 64, 64, 64, 81, 82, 84, 51, 60, 78, 74, 69, 72, 68, 68, 76, 69, 70, 86, 64, 65, 66, 58, 72, 75, 76, 58, 73, 65, 75, 69, 70, 75, 79, 77, 61, 67, 64, 62, 64, 65, 60, 71, 66, 66, 64, 66, 60, 68, 64, 68, 64, 64, 64, 64, 64, 64, 64, 64, 64, 192, 183, 190, 194, 186, 194, 174, 192, 192, 190, 190, 185, 197, 195, 192, 190, 188, 191, 191, 197, 190, 206, 188, 192, 191, 192, 191, 198, 201, 193, 195, 190, 192, 197, 198, 200, 194, 191, 199, 190, 192, 192, 192, 192, 193, 186, 194, 194, 194, 190, 192, 194, 192, 196, 192, 188, 194, 192, 190, 194, 194, 194, 192, 190, 194, 192, 182, 192, 194, 177, 190, 192, 194, 188, 191, 198, 195, 190, 197, 190, 196, 195, 195, 206, 208, 190, 195, 192, 194, 197, 201, 197, 195, 205, 189, 195, 194, 192, 194, 191, 199, 203, 203, 194, 187, 196, 194, 201, 194, 194, 197, 188, 192, 188, 192, 200, 193, 202, 194, 198, 192, 188, 192, 194, 192, 194, 190, 190, 326, 311, 331, 322, 337, 329, 320, 296, 322, 327, 321, 316, 329, 325, 324, 314, 316, 321, 325, 316, 320, 324, 319, 320, 320, 320, 324, 320, 328, 329, 322, 324, 322, 320, 324, 323, 320, 322, 324, 324, 318, 320, 326, 330, 324, 325, 317, 318, 315, 328, 324, 313, 332, 314, 317, 314, 322, 320, 320, 319, 323, 320, 320, 322, 574, 580, 578, 579, 557, 574, 576, 576, 576, 576, 574, 567, 560, 581, 580, 576, 573, 572, 582, 578, 576, 576, 580, 576, 578, 574, 578, 576, 576, 576, 569, 573, 576, 572, 575, 576, 584, 574, 578, 572, 577, 576, 574, 576, 572, 580, 578, 576, 574, 576, 574, 576, 575, 580, 567, 578, 574, 576, 576, 576, 574, 576, 576, 574, -64, -64, -64, -64, -64, -64, -64, -64, -62, -66, -66, -69, -64, -64, -64, -64, -68, -63, -63, -63, -68, -66, -64, -64, -62, -62, -64, -48, -71, -65, -64, -40, -63, -56, -52, -39, -61, -61, -66, -51, -58, -65, -45, -53, -56, -43, -60, -60, -49, -49, -50, -61, -64, -58, -56, -60, -64, -64, -64, -64, -64, -64, -64, -64, -188, -192, -192, -190, -193, -194, -192, -194, -194, -191, -191, -191, -192, -192, -190, -190, -194, -192, -193, -194, -196, -190, -192, -192, -190, -190, -200, -210, -193, -192, -196, -197, -184, -191, -191, -194, -197, -193, -192, -183, -191, -185, -199, -193, -187, -190, -188, -191, -191, -192, -190, -187, -185, -188, -186, -190, -192, -185, -192, -186, -190, -195, -198, -190, -192, -192, -192, -192, -187, -192, -190, -190, -192, -196, -201, -190, -192, -199, -192, -190, -192, -192, -192, -201, -196, -199, -190, -192, -190, -192, -191, -187, -198, -191, -192, -197, -192, -196, -200, -197, -201, -195, -195, -195, -196, -189, -188, -190, -191, -192, -187, -191, -192, -189, -194, -197, -177, -192, -185, -192, -190, -190, -192, -187, -183, -185, -190, -192, -324, -320, -320, -319, -318, -323, -326, -321, -324, -320, -323, -321, -322, -320, -323, -320, -323, -323, -321, -317, -316, -322, -320, -320, -323, -319, -320, -316, -319, -332, -338, -320, -316, -317, -315, -306, -317, -317, -324, -321, -319, -317, -315, -321, -313, -326, -316, -326, -318, -318, -323, -317, -322, -315, -316, -319, -311, -318, -310, -314, -322, -317, -313, -305, -580, -574, -578, -578, -582, -576, -578, -576, -574, -576, -586, -578, -580, -580, -576, -576, -576, -582, -576, -580, -576, -580, -576, -576, -576, -576, -573, -576, -580, -581, -576, -576, -574, -574, -574, -584, -579, -586, -580, -575, -574, -576, -584, -576, -583, -579, -588, -578, -576, -574, -580, -574, -572, -572, -574, -576, -576, -578, -578, -574, -581, -576, -574, -578, 64, 64, 64, 64, 64, 64, 64, 64, 89, 86, 75, 51, 62, 80, 81, 71, 75, 64, 83, 68, 76, 77, 64, 77, 57, 79, 68, 94, 73, 71, 87, 78, 64, 68, 65, 66, 76, 81, 95, 70, 65, 62, 68, 71, 75, 76, 67, 72, 66, 64, 62, 62, 74, 66, 64, 65, 64, 64, 64, 64, 64, 64, 64, 64, 192, 175, 185, 188, 189, 186, 159, 192, 193, 186, 199, 184, 194, 196, 192, 191, 189, 194, 198, 188, 192, 208, 192, 183, 194, 191, 185, 192, 198, 201, 197, 187, 187, 191, 203, 211, 200, 183, 187, 195, 194, 192, 205, 191, 191, 193, 188, 194, 195, 200, 195, 193, 193, 190, 198, 189, 188, 192, 192, 195, 188, 196, 192, 182, 191, 194, 185, 189, 195, 197, 197, 189, 189, 189, 192, 195, 209, 193, 193, 193, 189, 196, 205, 222, 214, 198, 192, 192, 192, 188, 212, 200, 197, 213, 201, 183, 193, 194, 205, 189, 220, 192, 205, 194, 187, 192, 191, 192, 197, 193, 202, 200, 190, 196, 198, 198, 192, 198, 201, 190, 190, 195, 192, 189, 194, 194, 192, 192, 317, 323, 328, 329, 333, 327, 303, 322, 319, 325, 323, 334, 323, 313, 324, 325, 332, 310, 323, 325, 321, 328, 320, 318, 310, 323, 331, 312, 324, 319, 321, 319, 322, 321, 325, 330, 316, 325, 329, 328, 319, 327, 329, 331, 336, 327, 332, 325, 329, 321, 328, 334, 335, 335, 342, 329, 319, 321, 316, 326, 334, 319, 331, 327, 569, 572, 575, 583, 561, 571, 572, 572, 577, 574, 580, 576, 578, 578, 572, 576, 577, 583, 580, 569, 569, 580, 576, 574, 574, 579, 571, 583, 578, 580, 574, 575, 580, 577, 577, 573, 576, 580, 569, 574, 578, 578, 576, 577, 582, 577, 574, 578, 579, 574, 575, 572, 577, 570, 577, 588, 576, 576, 576, 574, 578, 578, 576, 578, -64, -64, -64, -64, -64, -64, -64, -64, -72, -63, -75, -61, -63, -64, -64, -64, -75, -72, -67, -77, -66, -57, -64, -63, -62, -63, -67, -69, -50, -64, -51, -64, -65, -54, -54, -53, -69, -52, -59, -51, -42, -50, -45, -59, -49, -59, -48, -54, -37, -46, -48, -75, -55, -51, -45, -53, -64, -64, -64, -64, -64, -64, -64, -64, -181, -194, -196, -190, -193, -192, -194, -192, -184, -186, -187, -197, -192, -199, -188, -188, -194, -196, -198, -195, -196, -196, -192, -189, -195, -197, -194, -217, -192, -199, -194, -195, -183, -197, -194, -195, -189, -192, -199, -192, -187, -189, -199, -201, -193, -190, -185, -183, -185, -188, -196, -197, -178, -199, -198, -195, -192, -190, -189, -185, -195, -186, -202, -194, -195, -195, -189, -195, -192, -196, -194, -189, -193, -191, -194, -199, -204, -192, -193, -192, -195, -193, -185, -208, -205, -188, -192, -195, -200, -213, -192, -196, -197, -192, -178, -192, -200, -191, -212, -196, -195, -200, -202, -192, -202, -192, -190, -209, -183, -200, -184, -198, -196, -192, -197, -181, -202, -192, -190, -190, -192, -191, -175, -194, -188, -193, -194, -190, -315, -316, -313, -323, -316, -323, -314, -301, -308, -309, -313, -319, -311, -320, -320, -317, -317, -319, -315, -312, -324, -320, -320, -320, -318, -315, -326, -323, -319, -327, -320, -314, -309, -318, -324, -325, -319, -314, -312, -312, -319, -311, -316, -322, -315, -328, -314, -318, -312, -322, -319, -322, -307, -324, -313, -313, -308, -319, -315, -320, -308, -317, -316, -310, -568, -578, -580, -581, -580, -578, -580, -570, -567, -558, -579, -576, -573, -576, -576, -576, -578, -580, -574, -583, -577, -576, -576, -576, -569, -578, -586, -583, -576, -576, -576, -576, -579, -578, -581, -597, -574, -588, -576, -574, -582, -580, -591, -579, -572, -578, -582, -578, -573, -573, -578, -580, -577, -581, -576, -576, -574, -572, -576, -575, -589, -576, -574, -572, 64, 64, 64, 64, 64, 64, 64, 64, 95, 92, 99, 65, 54, 75, 84, 80, 69, 82, 77, 85, 68, 64, 80, 81, 73, 68, 71, 88, 81, 81, 77, 77, 73, 74, 81, 71, 88, 86, 79, 59, 62, 63, 67, 61, 76, 74, 72, 64, 61, 67, 71, 70, 64, 69, 58, 69, 64, 64, 64, 64, 64, 64, 64, 64, 192, 177, 189, 191, 200, 187, 169, 194, 183, 182, 196, 184, 187, 196, 194, 194, 193, 190, 191, 206, 214, 192, 197, 182, 181, 206, 218, 193, 209, 206, 195, 192, 187, 197, 198, 204, 209, 209, 195, 200, 187, 196, 199, 202, 204, 199, 193, 195, 197, 194, 201, 196, 199, 197, 196, 192, 182, 190, 194, 194, 191, 195, 190, 184, 193, 190, 189, 184, 182, 173, 192, 183, 203, 200, 199, 203, 189, 204, 175, 185, 187, 198, 201, 217, 225, 192, 191, 196, 192, 195, 221, 200, 197, 197, 194, 195, 200, 196, 205, 200, 218, 206, 199, 193, 198, 197, 193, 209, 192, 190, 198, 193, 188, 196, 196, 203, 199, 200, 194, 189, 193, 192, 202, 197, 183, 186, 185, 194, 336, 326, 318, 330, 334, 328, 327, 321, 312, 326, 308, 322, 323, 319, 325, 322, 314, 314, 339, 329, 323, 320, 319, 321, 304, 322, 333, 331, 325, 326, 316, 316, 326, 321, 322, 332, 328, 327, 325, 333, 316, 329, 328, 330, 330, 331, 327, 318, 332, 331, 318, 325, 329, 335, 327, 340, 332, 321, 323, 324, 329, 323, 320, 326, 567, 577, 573, 570, 543, 570, 568, 574, 580, 576, 583, 569, 568, 567, 574, 576, 574, 574, 573, 563, 578, 576, 561, 574, 580, 573, 572, 573, 573, 568, 575, 559, 576, 580, 576, 578, 574, 569, 574, 576, 575, 580, 578, 577, 578, 575, 581, 568, 576, 582, 584, 572, 577, 572, 579, 580, 572, 574, 580, 580, 574, 574, 578, 576, -64, -64, -64, -64, -64, -64, -64, -64, -67, -62, -70, -71, -66, -66, -66, -75, -60, -80, -73, -66, -64, -64, -65, -79, -72, -69, -53, -46, -64, -55, -64, -53, -62, -54, -48, -64, -68, -52, -64, -40, -47, -51, -41, -54, -56, -38, -61, -49, -34, -43, -49, -68, -60, -49, -48, -46, -64, -64, -64, -64, -64, -64, -64, -64, -191, -190, -190, -187, -192, -190, -192, -159, -192, -182, -202, -192, -194, -204, -190, -192, -195, -190, -196, -189, -202, -192, -185, -198, -192, -208, -199, -192, -221, -195, -214, -192, -192, -195, -183, -193, -192, -212, -192, -185, -189, -193, -203, -192, -208, -198, -183, -177, -193, -188, -197, -185, -199, -187, -184, -189, -194, -178, -186, -183, -189, -188, -181, -188, -191, -194, -191, -194, -191, -200, -189, -192, -190, -192, -211, -196, -192, -196, -192, -180, -194, -208, -193, -223, -189, -192, -199, -203, -198, -201, -208, -196, -192, -204, -192, -198, -184, -200, -206, -199, -180, -219, -195, -196, -186, -183, -205, -189, -208, -181, -209, -200, -190, -200, -178, -192, -191, -192, -185, -189, -192, -185, -199, -186, -197, -177, -189, -191, -318, -322, -314, -314, -319, -322, -320, -316, -315, -322, -329, -324, -320, -320, -317, -314, -329, -315, -313, -319, -320, -320, -320, -318, -324, -317, -324, -329, -321, -320, -320, -329, -320, -311, -321, -329, -324, -318, -322, -325, -314, -314, -320, -322, -317, -308, -314, -318, -315, -316, -326, -330, -310, -304, -321, -310, -310, -314, -308, -318, -304, -293, -305, -300, -577, -580, -576, -580, -576, -582, -578, -572, -589, -582, -611, -579, -576, -576, -576, -587, -580, -573, -568, -583, -576, -576, -576, -582, -585, -568, -597, -584, -576, -576, -576, -576, -578, -577, -583, -578, -588, -584, -579, -576, -582, -578, -590, -583, -579, -573, -581, -583, -581, -578, -574, -591, -579, -582, -575, -576, -576, -576, -579, -579, -593, -572, -583, -576, 64, 64, 64, 64, 64, 64, 64, 64, 95, 86, 84, 51, 50, 61, 85, 87, 77, 91, 77, 91, 64, 85, 79, 76, 65, 78, 76, 87, 94, 79, 83, 76, 63, 75, 66, 76, 83, 92, 81, 70, 70, 72, 66, 76, 63, 72, 61, 67, 67, 65, 70, 73, 67, 75, 66, 82, 64, 64, 64, 64, 64, 64, 64, 64, 186, 173, 198, 188, 183, 190, 165, 183, 183, 193, 197, 197, 191, 182, 192, 191, 183, 187, 202, 202, 192, 197, 196, 192, 196, 200, 194, 210, 211, 209, 195, 189, 204, 208, 205, 201, 209, 215, 205, 197, 191, 199, 196, 202, 196, 207, 192, 185, 196, 204, 198, 200, 190, 198, 196, 190, 181, 197, 200, 184, 197, 188, 188, 176, 189, 192, 165, 190, 195, 171, 195, 188, 191, 188, 197, 200, 199, 184, 186, 193, 193, 210, 199, 215, 192, 200, 205, 198, 181, 184, 202, 208, 203, 199, 190, 180, 195, 198, 201, 201, 206, 196, 202, 202, 204, 200, 200, 202, 202, 201, 184, 189, 194, 182, 187, 189, 201, 203, 196, 185, 195, 194, 192, 191, 198, 192, 196, 181, 324, 318, 336, 326, 316, 332, 331, 318, 308, 315, 322, 312, 316, 326, 324, 309, 323, 316, 318, 322, 320, 324, 307, 317, 323, 330, 321, 312, 337, 329, 321, 319, 337, 320, 336, 335, 339, 331, 322, 338, 327, 330, 325, 326, 325, 342, 344, 335, 328, 335, 345, 345, 328, 348, 344, 335, 333, 327, 321, 335, 332, 321, 329, 323, 581, 574, 572, 563, 544, 563, 571, 567, 576, 574, 572, 563, 573, 564, 572, 576, 573, 566, 577, 566, 576, 557, 551, 576, 574, 570, 565, 568, 564, 572, 566, 560, 571, 574, 583, 576, 566, 581, 577, 576, 583, 574, 579, 581, 569, 577, 574, 568, 574, 574, 576, 573, 578, 575, 576, 564, 574, 571, 576, 580, 571, 574, 580, 582, -64, -64, -64, -64, -64, -64, -64, -64, -61, -78, -71, -70, -60, -67, -71, -75, -58, -69, -69, -70, -64, -66, -59, -68, -58, -59, -51, -64, -38, -64, -47, -58, -57, -47, -45, -59, -60, -56, -53, -53, -43, -48, -39, -67, -47, -55, -48, -48, -39, -47, -44, -74, -58, -52, -48, -46, -64, -64, -64, -64, -64, -64, -64, -64, -194, -186, -192, -192, -190, -192, -188, -156, -185, -189, -192, -192, -198, -186, -192, -180, -191, -201, -182, -188, -192, -187, -190, -192, -183, -218, -192, -240, -222, -214, -192, -193, -194, -193, -186, -192, -199, -192, -188, -187, -189, -183, -202, -191, -195, -203, -182, -197, -186, -190, -186, -178, -192, -180, -181, -188, -192, -180, -187, -188, -196, -194, -186, -180, -196, -185, -194, -194, -204, -187, -194, -193, -189, -193, -187, -192, -187, -192, -191, -198, -200, -198, -201, -196, -192, -201, -196, -187, -206, -215, -210, -192, -194, -192, -195, -197, -205, -190, -206, -199, -214, -202, -190, -190, -193, -204, -200, -219, -198, -196, -186, -204, -178, -194, -203, -182, -206, -178, -215, -200, -200, -198, -186, -196, -182, -201, -198, -194, -326, -328, -327, -335, -318, -330, -323, -328, -322, -321, -324, -321, -320, -320, -329, -315, -318, -322, -319, -320, -320, -320, -331, -327, -318, -312, -329, -318, -320, -324, -319, -324, -315, -322, -323, -323, -298, -313, -316, -312, -325, -321, -325, -315, -295, -304, -312, -307, -316, -320, -311, -311, -304, -307, -325, -313, -308, -319, -314, -311, -299, -311, -314, -309, -580, -577, -578, -580, -578, -580, -576, -576, -581, -593, -622, -576, -576, -576, -594, -585, -583, -581, -579, -576, -576, -576, -580, -582, -593, -593, -571, -576, -576, -576, -586, -581, -588, -584, -581, -579, -589, -584, -576, -586, -578, -581, -591, -585, -573, -589, -590, -578, -578, -583, -585, -578, -586, -585, -579, -576, -577, -578, -577, -584, -611, -585, -576, -571, 64, 64, 64, 64, 64, 64, 64, 64, 96, 92, 69, 52, 51, 75, 95, 93, 76, 82, 83, 64, 82, 83, 86, 74, 77, 75, 80, 91, 81, 63, 83, 68, 61, 77, 74, 97, 80, 70, 83, 79, 67, 64, 73, 76, 77, 74, 66, 87, 66, 58, 65, 59, 76, 69, 69, 86, 64, 64, 64, 64, 64, 64, 64, 64, 192, 180, 189, 186, 204, 181, 189, 197, 193, 187, 198, 203, 196, 200, 186, 194, 197, 189, 217, 192, 198, 195, 198, 188, 195, 194, 202, 207, 159, 194, 194, 199, 197, 201, 202, 207, 217, 209, 195, 205, 190, 194, 201, 199, 208, 204, 196, 198, 204, 200, 182, 197, 194, 216, 204, 185, 177, 197, 190, 196, 190, 198, 188, 177, 190, 193, 181, 185, 193, 144, 193, 186, 203, 187, 195, 212, 183, 198, 189, 185, 202, 194, 209, 192, 203, 208, 207, 201, 183, 201, 192, 200, 192, 202, 199, 194, 201, 181, 206, 198, 214, 204, 209, 197, 195, 206, 194, 194, 203, 191, 180, 200, 199, 206, 186, 199, 197, 197, 195, 203, 197, 189, 187, 188, 195, 199, 202, 197, 319, 328, 336, 306, 331, 340, 321, 326, 321, 329, 328, 315, 321, 313, 319, 327, 320, 309, 314, 320, 308, 313, 325, 324, 326, 311, 312, 335, 326, 341, 318, 327, 334, 330, 340, 335, 330, 333, 327, 337, 334, 323, 327, 329, 330, 348, 328, 341, 334, 330, 333, 322, 348, 339, 339, 338, 334, 320, 325, 329, 331, 320, 319, 334, 575, 572, 563, 567, 519, 575, 572, 573, 576, 573, 574, 560, 563, 553, 572, 579, 577, 574, 552, 576, 565, 573, 559, 572, 577, 579, 566, 572, 575, 569, 574, 557, 579, 581, 579, 570, 581, 584, 573, 576, 574, 575, 575, 573, 582, 573, 574, 562, 577, 578, 586, 572, 573, 578, 572, 566, 580, 576, 574, 578, 578, 574, 574, 573, -64, -64, -64, -64, -64, -64, -64, -64, -80, -62, -69, -62, -63, -69, -65, -77, -66, -71, -58, -64, -51, -65, -64, -78, -60, -46, -64, -37, -64, -52, -56, -67, -45, -62, -48, -54, -57, -60, -46, -48, -46, -53, -52, -48, -61, -43, -52, -42, -42, -50, -51, -68, -65, -53, -49, -43, -64, -64, -64, -64, -64, -64, -64, -64, -178, -188, -192, -187, -192, -183, -186, -194, -198, -192, -196, -183, -193, -192, -201, -189, -187, -193, -198, -192, -188, -192, -186, -188, -197, -192, -216, -199, -235, -192, -183, -202, -200, -189, -192, -201, -192, -191, -200, -177, -187, -194, -188, -191, -203, -204, -191, -188, -193, -185, -202, -193, -183, -182, -191, -187, -196, -188, -182, -181, -184, -190, -189, -188, -184, -192, -184, -196, -187, -192, -199, -190, -192, -189, -192, -201, -192, -187, -194, -181, -197, -211, -198, -192, -197, -206, -180, -195, -206, -200, -192, -182, -192, -199, -214, -189, -191, -196, -191, -211, -202, -271, -187, -201, -218, -184, -200, -194, -215, -197, -208, -184, -184, -207, -190, -219, -186, -205, -184, -195, -189, -188, -200, -188, -201, -174, -198, -175, -324, -324, -328, -322, -326, -320, -327, -326, -311, -320, -330, -320, -320, -319, -338, -330, -313, -322, -320, -320, -320, -331, -332, -318, -330, -327, -318, -320, -335, -332, -321, -340, -305, -320, -322, -317, -323, -315, -318, -314, -332, -309, -304, -305, -315, -314, -319, -317, -311, -305, -310, -309, -311, -311, -314, -311, -310, -311, -311, -315, -312, -314, -303, -302, -581, -576, -581, -580, -580, -576, -573, -589, -594, -596, -576, -576, -576, -592, -588, -576, -584, -586, -576, -576, -576, -589, -585, -586, -599, -590, -576, -576, -576, -580, -597, -579, -584, -576, -587, -585, -587, -582, -593, -595, -579, -587, -650, -586, -586, -583, -581, -577, -571, -581, -571, -591, -596, -581, -578, -574, -576, -580, -584, -580, -579, -579, -580, -583, 64, 64, 64, 64, 64, 64, 64, 64, 86, 86, 93, 67, 57, 89, 87, 89, 75, 88, 64, 85, 89, 77, 82, 72, 75, 70, 86, 81, 76, 67, 75, 83, 80, 78, 80, 81, 70, 58, 66, 72, 67, 69, 67, 73, 66, 69, 73, 62, 71, 68, 70, 73, 67, 71, 71, 79, 64, 64, 64, 64, 64, 64, 64, 64, 194, 156, 185, 178, 197, 187, 169, 194, 183, 192, 193, 186, 182, 183, 198, 192, 192, 192, 192, 197, 195, 207, 198, 185, 204, 187, 190, 186, 208, 200, 204, 185, 190, 190, 206, 201, 206, 210, 205, 187, 198, 204, 198, 202, 206, 213, 193, 197, 186, 193, 190, 182, 199, 197, 200, 194, 188, 188, 193, 194, 195, 194, 188, 169, 176, 191, 191, 196, 188, 180, 193, 196, 183, 183, 198, 180, 202, 188, 199, 210, 203, 197, 192, 202, 218, 197, 198, 199, 200, 192, 211, 201, 208, 216, 190, 198, 192, 210, 198, 214, 201, 206, 212, 198, 195, 200, 203, 194, 199, 204, 183, 198, 196, 196, 200, 202, 203, 191, 197, 189, 192, 198, 194, 197, 190, 188, 200, 187, 327, 326, 304, 335, 335, 325, 324, 325, 326, 326, 316, 312, 311, 318, 319, 311, 317, 312, 320, 324, 318, 318, 326, 322, 310, 316, 325, 324, 336, 324, 326, 326, 332, 341, 325, 333, 350, 354, 344, 343, 322, 329, 322, 339, 339, 339, 337, 331, 342, 339, 335, 343, 336, 345, 347, 356, 316, 337, 326, 314, 343, 336, 321, 336, 574, 577, 559, 559, 522, 558, 578, 576, 573, 562, 573, 568, 570, 560, 569, 579, 572, 557, 576, 569, 567, 577, 562, 578, 578, 581, 567, 565, 568, 574, 572, 564, 580, 572, 572, 574, 578, 582, 563, 571, 574, 571, 570, 585, 583, 576, 569, 577, 573, 572, 575, 577, 579, 567, 567, 565, 578, 574, 580, 578, 580, 579, 576, 567, -64, -64, -64, -64, -64, -64, -64, -64, -74, -65, -70, -62, -75, -74, -79, -79, -63, -47, -64, -69, -63, -78, -79, -69, -44, -64, -50, -64, -39, -69, -55, -66, -54, -57, -51, -53, -66, -48, -55, -56, -48, -62, -49, -74, -49, -40, -45, -52, -40, -58, -43, -72, -73, -50, -55, -39, -64, -64, -64, -64, -64, -64, -64, -64, -171, -192, -191, -192, -194, -184, -194, -174, -192, -198, -193, -197, -192, -200, -190, -188, -185, -197, -192, -192, -196, -196, -186, -204, -192, -217, -191, -227, -192, -202, -192, -190, -184, -192, -195, -192, -201, -197, -196, -187, -181, -199, -193, -196, -190, -209, -188, -192, -203, -193, -188, -194, -202, -190, -189, -186, -194, -171, -197, -188, -187, -188, -178, -188, -192, -194, -199, -178, -192, -192, -193, -184, -181, -192, -199, -192, -191, -206, -202, -196, -204, -199, -192, -193, -200, -191, -201, -191, -202, -192, -188, -192, -199, -214, -199, -203, -193, -179, -216, -195, -212, -193, -209, -194, -192, -207, -194, -222, -199, -199, -191, -209, -195, -196, -204, -184, -200, -178, -203, -198, -193, -188, -177, -196, -185, -197, -185, -187, -312, -330, -315, -344, -333, -321, -324, -316, -324, -319, -320, -329, -335, -323, -322, -311, -312, -320, -320, -320, -329, -323, -317, -326, -314, -323, -320, -334, -319, -322, -316, -314, -303, -310, -315, -321, -328, -320, -301, -317, -313, -316, -306, -307, -304, -320, -312, -318, -314, -305, -309, -308, -307, -298, -312, -301, -306, -301, -303, -319, -308, -316, -305, -302, -573, -585, -576, -580, -581, -579, -576, -577, -608, -576, -576, -576, -581, -595, -587, -574, -612, -576, -576, -576, -580, -576, -586, -580, -602, -576, -576, -576, -598, -588, -582, -571, -578, -598, -587, -599, -580, -580, -585, -589, -589, -589, -589, -585, -587, -591, -575, -594, -578, -581, -573, -592, -605, -589, -580, -572, -576, -580, -574, -577, -605, -586, -569, -578, 64, 64, 64, 64, 64, 64, 64, 64, 83, 83, 62, 72, 37, 81, 89, 88, 82, 64, 70, 69, 76, 74, 70, 80, 82, 94, 70, 91, 75, 63, 78, 65, 87, 89, 86, 87, 74, 73, 70, 72, 86, 73, 70, 73, 72, 71, 70, 73, 70, 67, 67, 74, 74, 71, 72, 77, 64, 64, 64, 64, 64, 64, 64, 64, 196, 170, 196, 193, 178, 197, 173, 190, 194, 186, 195, 175, 193, 196, 190, 190, 176, 192, 222, 194, 202, 198, 183, 187, 191, 198, 199, 209, 193, 205, 198, 188, 207, 214, 216, 204, 220, 216, 198, 188, 199, 200, 204, 198, 215, 204, 197, 197, 199, 196, 189, 196, 194, 200, 193, 182, 183, 194, 194, 201, 193, 196, 188, 191, 192, 188, 190, 190, 188, 180, 189, 192, 194, 203, 193, 204, 198, 188, 174, 183, 205, 192, 192, 223, 220, 209, 201, 186, 179, 198, 211, 207, 208, 210, 199, 195, 194, 214, 212, 203, 218, 213, 183, 204, 202, 197, 203, 196, 202, 196, 193, 193, 196, 196, 191, 198, 195, 195, 191, 197, 193, 188, 193, 188, 198, 195, 188, 192, 343, 322, 301, 341, 336, 323, 310, 320, 319, 309, 321, 314, 326, 318, 309, 305, 318, 320, 313, 325, 322, 327, 307, 318, 318, 313, 325, 330, 333, 317, 330, 322, 335, 315, 341, 327, 343, 341, 338, 330, 339, 333, 327, 342, 332, 337, 341, 333, 326, 327, 334, 348, 328, 345, 340, 349, 336, 321, 313, 334, 332, 332, 327, 344, 580, 580, 574, 573, 535, 571, 575, 580, 575, 581, 574, 568, 571, 566, 571, 572, 564, 576, 572, 570, 585, 575, 557, 575, 579, 582, 576, 585, 584, 573, 571, 568, 578, 577, 573, 591, 587, 583, 568, 576, 568, 582, 589, 584, 566, 563, 576, 569, 579, 578, 581, 570, 580, 571, 568, 578, 579, 583, 574, 580, 575, 570, 581, 580, -64, -64, -64, -64, -64, -64, -64, -64, -69, -58, -65, -65, -78, -77, -76, -81, -55, -64, -45, -70, -72, -76, -77, -74, -64, -43, -64, -81, -67, -59, -67, -61, -55, -57, -43, -63, -54, -53, -43, -59, -53, -43, -62, -58, -42, -43, -54, -46, -53, -46, -59, -69, -52, -47, -38, -37, -64, -64, -64, -64, -64, -64, -64, -64, -192, -194, -192, -195, -193, -187, -189, -182, -182, -197, -186, -192, -197, -190, -186, -187, -197, -192, -189, -203, -198, -210, -188, -186, -187, -237, -214, -192, -212, -197, -192, -196, -192, -197, -192, -196, -206, -201, -189, -190, -191, -184, -200, -198, -198, -197, -195, -191, -201, -197, -183, -194, -183, -195, -185, -187, -184, -177, -176, -192, -184, -189, -167, -188, -183, -191, -194, -186, -180, -193, -188, -194, -192, -194, -192, -204, -211, -192, -198, -194, -175, -192, -195, -201, -197, -193, -200, -199, -192, -187, -192, -204, -224, -204, -200, -195, -191, -200, -193, -196, -206, -205, -188, -194, -195, -185, -209, -193, -210, -188, -200, -197, -185, -199, -192, -183, -182, -200, -194, -209, -189, -191, -181, -187, -189, -182, -187, -200, -322, -321, -324, -330, -329, -318, -324, -309, -325, -320, -335, -316, -320, -318, -310, -306, -320, -320, -320, -332, -328, -321, -315, -315, -307, -320, -334, -333, -323, -334, -330, -321, -319, -309, -324, -322, -320, -311, -319, -310, -321, -305, -325, -321, -311, -307, -310, -320, -311, -315, -312, -309, -317, -306, -315, -323, -309, -291, -307, -313, -312, -317, -294, -298, -576, -577, -584, -573, -551, -570, -574, -576, -576, -576, -576, -596, -595, -579, -579, -565, -576, -576, -576, -604, -578, -587, -567, -576, -576, -576, -576, -612, -589, -574, -575, -577, -585, -604, -590, -580, -599, -595, -575, -572, -589, -577, -583, -570, -591, -593, -566, -577, -577, -581, -569, -589, -581, -569, -594, -571, -576, -580, -573, -571, -594, -578, -578, -581, 64, 64, 64, 64, 64, 64, 64, 64, 75, 69, 83, 63, 57, 73, 77, 88, 64, 87, 74, 72, 76, 70, 70, 64, 72, 67, 81, 83, 69, 67, 80, 73, 71, 64, 58, 74, 70, 72, 65, 77, 77, 64, 70, 76, 65, 67, 64, 78, 64, 64, 66, 66, 74, 65, 72, 76, 64, 64, 64, 64, 64, 64, 64, 64, 188, 180, 186, 193, 182, 183, 187, 188, 192, 187, 193, 180, 187, 182, 195, 192, 192, 182, 202, 195, 184, 200, 200, 177, 202, 192, 190, 195, 205, 197, 194, 190, 194, 204, 209, 203, 210, 206, 197, 193, 194, 189, 195, 203, 204, 196, 195, 195, 191, 189, 192, 194, 198, 190, 197, 193, 191, 193, 196, 198, 194, 194, 188, 187, 188, 196, 191, 195, 193, 184, 182, 188, 191, 182, 198, 187, 202, 191, 190, 199, 192, 200, 204, 212, 211, 194, 198, 204, 200, 199, 200, 205, 201, 209, 183, 204, 183, 201, 193, 194, 200, 195, 193, 200, 190, 195, 200, 197, 180, 190, 190, 193, 186, 203, 200, 196, 194, 191, 186, 190, 194, 192, 192, 194, 192, 191, 192, 190, 319, 338, 326, 334, 333, 326, 309, 320, 321, 316, 312, 327, 315, 333, 316, 313, 320, 319, 327, 323, 318, 330, 318, 321, 326, 319, 321, 320, 320, 318, 325, 317, 324, 322, 323, 323, 320, 326, 327, 319, 325, 332, 325, 327, 322, 332, 328, 315, 316, 329, 331, 331, 327, 341, 334, 332, 326, 323, 316, 326, 314, 316, 327, 311, 574, 571, 574, 575, 567, 574, 582, 572, 575, 578, 574, 567, 575, 558, 575, 572, 576, 572, 590, 582, 581, 572, 580, 573, 565, 580, 578, 576, 588, 572, 571, 573, 567, 574, 584, 577, 582, 576, 565, 576, 574, 576, 573, 587, 580, 576, 580, 573, 578, 578, 585, 581, 581, 573, 584, 574, 579, 572, 570, 576, 576, 579, 576, 570, -64, -64, -64, -64, -64, -64, -64, -64, -62, -68, -65, -74, -63, -71, -64, -71, -64, -60, -58, -68, -67, -75, -70, -64, -42, -64, -61, -67, -54, -65, -66, -62, -58, -57, -59, -51, -63, -57, -52, -50, -43, -55, -55, -70, -50, -45, -61, -44, -59, -56, -52, -75, -71, -54, -53, -50, -64, -64, -64, -64, -64, -64, -64, -64, -194, -192, -194, -191, -198, -196, -190, -192, -188, -196, -192, -205, -200, -193, -189, -192, -192, -190, -196, -209, -199, -194, -188, -186, -192, -221, -192, -215, -198, -193, -189, -187, -186, -192, -194, -201, -198, -198, -187, -200, -187, -189, -202, -197, -192, -186, -178, -187, -193, -183, -189, -201, -179, -194, -189, -192, -190, -184, -189, -194, -193, -189, -177, -192, -197, -196, -192, -188, -193, -192, -192, -187, -194, -192, -193, -192, -191, -194, -192, -194, -192, -190, -208, -197, -204, -185, -198, -197, -198, -192, -196, -198, -192, -202, -192, -191, -198, -194, -199, -194, -198, -196, -200, -187, -192, -191, -196, -197, -192, -208, -186, -199, -193, -197, -194, -186, -201, -192, -193, -193, -192, -192, -193, -192, -185, -202, -193, -189, -324, -318, -332, -331, -329, -325, -307, -312, -320, -333, -330, -328, -322, -319, -304, -306, -320, -320, -313, -331, -317, -329, -319, -316, -320, -314, -321, -314, -322, -318, -318, -323, -322, -313, -328, -323, -327, -329, -315, -310, -314, -315, -316, -320, -319, -312, -320, -325, -310, -316, -314, -316, -307, -329, -325, -312, -297, -315, -303, -316, -312, -324, -315, -304, -578, -583, -574, -575, -577, -579, -578, -570, -576, -576, -582, -591, -575, -582, -561, -577, -576, -576, -582, -580, -572, -576, -580, -579, -576, -576, -594, -585, -584, -572, -581, -575, -579, -587, -578, -583, -583, -571, -574, -583, -570, -599, -579, -576, -583, -586, -577, -581, -579, -581, -569, -569, -578, -574, -576, -574, -576, -574, -572, -572, -587, -568, -577, -574, 64, 64, 64, 64, 64, 64, 64, 64, 70, 70, 75, 66, 69, 62, 82, 80, 83, 88, 85, 72, 60, 70, 71, 75, 67, 83, 75, 62, 76, 83, 75, 64, 77, 71, 69, 73, 66, 68, 64, 67, 64, 64, 62, 66, 64, 62, 70, 70, 64, 64, 64, 64, 66, 66, 66, 64, 64, 64, 64, 64, 64, 64, 64, 64, 192, 184, 188, 194, 192, 194, 192, 192, 194, 192, 188, 184, 198, 184, 192, 192, 192, 194, 197, 196, 192, 199, 194, 193, 192, 192, 192, 190, 192, 194, 194, 192, 193, 194, 194, 196, 194, 192, 186, 194, 192, 192, 192, 190, 192, 192, 197, 194, 192, 192, 192, 192, 194, 194, 192, 190, 192, 192, 192, 192, 192, 190, 194, 192, 192, 190, 187, 188, 193, 186, 190, 196, 192, 187, 192, 196, 201, 192, 189, 192, 193, 194, 196, 207, 198, 196, 194, 192, 192, 194, 204, 200, 191, 195, 190, 192, 190, 192, 196, 190, 193, 190, 193, 192, 190, 192, 190, 196, 193, 192, 194, 200, 192, 196, 196, 194, 190, 192, 194, 192, 192, 192, 190, 192, 192, 192, 196, 192, 314, 316, 323, 322, 332, 319, 326, 319, 318, 321, 318, 324, 323, 321, 318, 318, 318, 316, 318, 322, 322, 320, 320, 320, 320, 318, 315, 319, 324, 317, 322, 320, 322, 318, 321, 322, 324, 327, 318, 322, 319, 320, 318, 320, 318, 320, 320, 320, 325, 323, 320, 320, 322, 330, 322, 321, 320, 324, 318, 323, 324, 320, 326, 322, 576, 576, 576, 574, 567, 576, 574, 576, 576, 576, 576, 578, 577, 576, 576, 576, 578, 576, 578, 576, 576, 576, 578, 574, 576, 576, 576, 576, 576, 578, 576, 576, 576, 576, 576, 575, 578, 580, 573, 576, 576, 578, 576, 576, 576, 572, 576, 576, 574, 576, 576, 576, 576, 572, 579, 576, 576, 576, 576, 576, 576, 576, 576, 576, -64, -64, -64, -64, -64, -64, -64, -64, -66, -64, -62, -66, -64, -64, -62, -64, -62, -66, -64, -68, -66, -60, -66, -62, -63, -63, -54, -65, -60, -57, -52, -64, -60, -47, -52, -48, -51, -46, -64, -54, -45, -60, -48, -65, -61, -45, -60, -54, -54, -53, -55, -62, -63, -62, -69, -63, -64, -64, -64, -64, -64, -64, -64, -64, -190, -192, -192, -192, -190, -192, -192, -192, -192, -192, -196, -186, -190, -194, -192, -192, -192, -192, -192, -184, -192, -192, -190, -190, -190, -192, -184, -188, -186, -195, -189, -192, -189, -192, -190, -192, -192, -192, -194, -195, -192, -186, -199, -191, -190, -193, -192, -190, -192, -192, -192, -185, -193, -192, -192, -192, -192, -191, -188, -190, -192, -190, -188, -192, -192, -194, -194, -194, -192, -192, -192, -192, -192, -192, -193, -194, -190, -186, -190, -197, -192, -196, -192, -190, -192, -192, -192, -190, -194, -192, -189, -190, -192, -197, -190, -192, -190, -186, -191, -192, -188, -197, -192, -192, -190, -187, -190, -195, -191, -194, -188, -187, -192, -195, -192, -193, -190, -185, -185, -190, -190, -192, -191, -192, -189, -195, -192, -192, -317, -320, -320, -322, -316, -318, -318, -318, -320, -322, -323, -319, -322, -316, -321, -320, -322, -320, -322, -320, -328, -320, -316, -320, -320, -317, -316, -320, -318, -318, -320, -320, -323, -320, -322, -318, -311, -321, -314, -320, -318, -320, -316, -322, -317, -320, -320, -320, -316, -320, -318, -320, -320, -315, -320, -320, -309, -317, -329, -320, -322, -325, -314, -324, -576, -576, -576, -576, -576, -576, -576, -576, -576, -576, -580, -580, -576, -574, -574, -578, -576, -573, -578, -573, -578, -577, -576, -576, -578, -576, -576, -574, -576, -576, -576, -576, -578, -576, -580, -576, -580, -578, -576, -576, -574, -574, -574, -574, -581, -576, -578, -578, -576, -576, -573, -577, -574, -578, -576, -576, -576, -574, -576, -576, -578, -576, -578, -576, 64, 64, 64, 64, 64, 64, 64, 64, 88, 81, 83, 62, 62, 86, 74, 82, 71, 83, 84, 73, 67, 75, 74, 63, 85, 80, 69, 87, 88, 75, 64, 85, 62, 73, 65, 71, 75, 78, 75, 87, 67, 58, 67, 63, 63, 67, 67, 73, 68, 64, 64, 64, 62, 64, 68, 69, 64, 64, 64, 64, 64, 64, 64, 64, 192, 185, 192, 194, 194, 196, 189, 194, 192, 191, 191, 196, 190, 190, 190, 192, 192, 188, 203, 195, 188, 193, 192, 182, 191, 192, 191, 191, 194, 191, 192, 196, 190, 191, 189, 198, 197, 194, 200, 198, 192, 190, 192, 191, 196, 197, 196, 190, 192, 192, 192, 190, 192, 196, 190, 192, 190, 190, 192, 192, 192, 191, 192, 189, 192, 194, 187, 190, 192, 184, 192, 192, 197, 196, 193, 198, 203, 192, 191, 192, 194, 196, 194, 196, 212, 189, 197, 190, 190, 192, 199, 193, 195, 205, 192, 191, 192, 194, 194, 203, 204, 199, 204, 194, 194, 192, 192, 196, 189, 195, 196, 197, 194, 190, 192, 194, 196, 194, 188, 191, 192, 191, 192, 192, 192, 190, 192, 194, 316, 319, 319, 340, 330, 324, 330, 319, 317, 326, 322, 313, 320, 319, 322, 317, 319, 323, 319, 311, 327, 318, 325, 328, 310, 318, 321, 327, 324, 320, 320, 324, 326, 325, 325, 322, 318, 324, 323, 318, 322, 324, 323, 320, 320, 323, 320, 324, 323, 321, 318, 323, 321, 322, 321, 317, 320, 320, 318, 320, 324, 320, 320, 318, 576, 576, 575, 576, 568, 580, 574, 576, 576, 576, 576, 576, 575, 576, 576, 576, 576, 574, 576, 576, 576, 574, 576, 576, 576, 574, 574, 576, 576, 574, 576, 576, 576, 576, 576, 576, 576, 578, 578, 576, 576, 576, 576, 579, 576, 576, 576, 576, 576, 576, 576, 576, 572, 576, 577, 568, 576, 576, 576, 578, 576, 576, 576, 576, -64, -64, -64, -64, -64, -64, -64, -64, -67, -62, -66, -64, -69, -66, -66, -63, -68, -66, -64, -66, -62, -62, -60, -60, -63, -63, -65, -55, -61, -46, -64, -50, -52, -55, -44, -50, -53, -64, -51, -64, -40, -43, -40, -45, -69, -42, -56, -47, -43, -40, -47, -71, -55, -62, -59, -63, -64, -64, -64, -64, -64, -64, -64, -64, -188, -194, -192, -192, -188, -192, -192, -192, -192, -194, -191, -191, -192, -192, -191, -192, -190, -194, -190, -192, -192, -192, -196, -192, -190, -191, -198, -199, -188, -189, -192, -191, -192, -191, -179, -194, -192, -196, -192, -193, -192, -188, -199, -192, -193, -192, -197, -192, -192, -194, -190, -196, -191, -190, -196, -189, -192, -192, -192, -190, -192, -194, -186, -190, -192, -192, -196, -190, -193, -192, -190, -190, -191, -189, -184, -185, -192, -194, -195, -192, -195, -196, -189, -197, -190, -192, -194, -192, -190, -193, -197, -182, -195, -191, -192, -190, -190, -194, -200, -192, -194, -192, -190, -192, -194, -183, -194, -194, -194, -190, -198, -192, -194, -195, -190, -198, -183, -190, -184, -194, -190, -192, -186, -187, -190, -188, -190, -188, -315, -322, -322, -321, -324, -328, -318, -323, -318, -325, -328, -319, -318, -323, -320, -323, -321, -314, -320, -319, -321, -326, -320, -320, -322, -319, -320, -328, -319, -320, -320, -320, -324, -323, -319, -326, -317, -321, -320, -323, -327, -322, -320, -322, -308, -304, -318, -315, -316, -322, -318, -321, -315, -318, -317, -308, -310, -320, -323, -329, -322, -319, -308, -302, -576, -576, -576, -576, -576, -574, -576, -576, -574, -579, -576, -578, -578, -579, -576, -576, -578, -576, -578, -576, -579, -576, -576, -576, -574, -576, -574, -580, -576, -576, -576, -576, -576, -580, -576, -578, -577, -576, -576, -576, -578, -576, -578, -576, -576, -579, -576, -576, -576, -576, -576, -576, -576, -576, -576, -576, -576, -576, -576, -576, -579, -576, -576, -574, 64, 64, 64, 64, 64, 64, 64, 64, 84, 96, 92, 55, 60, 66, 77, 77, 88, 74, 77, 86, 73, 79, 78, 83, 83, 72, 78, 80, 83, 64, 81, 80, 71, 77, 77, 76, 76, 81, 78, 76, 70, 58, 67, 69, 77, 67, 69, 66, 66, 64, 62, 60, 67, 71, 64, 69, 64, 64, 64, 64, 64, 64, 64, 64, 194, 178, 191, 187, 188, 190, 173, 190, 192, 195, 195, 192, 185, 198, 192, 192, 189, 188, 192, 193, 198, 194, 192, 187, 189, 195, 188, 204, 185, 192, 197, 198, 190, 195, 199, 192, 197, 201, 191, 190, 190, 193, 197, 197, 195, 190, 198, 192, 190, 188, 185, 187, 195, 183, 190, 190, 194, 192, 190, 194, 188, 191, 192, 187, 190, 189, 176, 190, 192, 184, 192, 194, 186, 192, 191, 194, 184, 193, 191, 194, 191, 204, 200, 197, 195, 190, 194, 193, 194, 196, 210, 203, 186, 192, 199, 194, 188, 196, 192, 201, 194, 191, 185, 198, 193, 188, 190, 193, 192, 196, 196, 195, 197, 190, 192, 197, 195, 196, 195, 190, 194, 196, 190, 190, 191, 196, 192, 190, 317, 320, 324, 320, 334, 319, 327, 303, 326, 325, 317, 324, 318, 325, 327, 320, 325, 329, 321, 324, 327, 314, 320, 324, 312, 318, 332, 329, 324, 320, 320, 326, 315, 325, 330, 328, 328, 333, 321, 324, 326, 328, 317, 331, 328, 327, 326, 310, 324, 327, 331, 324, 325, 332, 327, 333, 319, 320, 321, 326, 328, 322, 324, 312, 574, 576, 577, 576, 550, 576, 576, 574, 576, 574, 574, 575, 578, 576, 576, 576, 576, 576, 577, 574, 582, 574, 572, 576, 576, 576, 573, 576, 578, 576, 576, 568, 574, 576, 576, 576, 570, 574, 576, 574, 578, 576, 574, 582, 576, 576, 578, 576, 576, 578, 576, 576, 576, 578, 576, 572, 576, 576, 576, 578, 576, 576, 576, 574, -64, -64, -64, -64, -64, -64, -64, -64, -66, -70, -66, -64, -66, -64, -63, -69, -62, -70, -69, -68, -60, -63, -53, -67, -64, -66, -50, -55, -57, -64, -41, -56, -44, -50, -38, -53, -64, -36, -64, -34, -47, -51, -43, -60, -61, -44, -53, -55, -37, -44, -54, -66, -73, -64, -65, -50, -64, -64, -64, -64, -64, -64, -64, -64, -191, -191, -192, -194, -186, -192, -192, -190, -193, -198, -198, -186, -192, -196, -192, -183, -191, -193, -191, -192, -195, -192, -194, -192, -187, -185, -187, -193, -189, -192, -201, -195, -194, -193, -187, -192, -200, -200, -196, -192, -192, -197, -210, -184, -192, -201, -192, -190, -190, -190, -192, -200, -184, -190, -194, -196, -192, -194, -194, -196, -194, -194, -200, -192, -196, -194, -192, -189, -190, -189, -194, -192, -188, -191, -196, -192, -195, -190, -187, -192, -189, -207, -194, -195, -192, -193, -192, -188, -191, -198, -194, -194, -201, -192, -196, -194, -192, -190, -211, -193, -192, -190, -192, -200, -192, -189, -195, -201, -193, -191, -184, -192, -190, -192, -193, -194, -194, -183, -197, -192, -190, -190, -189, -192, -174, -205, -190, -196, -317, -324, -322, -321, -319, -317, -319, -321, -317, -318, -303, -322, -318, -318, -322, -317, -323, -325, -308, -335, -321, -320, -317, -320, -313, -319, -320, -318, -320, -320, -320, -323, -311, -322, -317, -317, -323, -320, -325, -319, -320, -325, -311, -318, -317, -320, -304, -310, -310, -316, -318, -321, -310, -323, -311, -322, -320, -311, -318, -318, -318, -313, -319, -322, -576, -576, -576, -578, -578, -578, -574, -576, -578, -581, -591, -576, -576, -576, -576, -576, -575, -578, -580, -580, -576, -576, -576, -576, -580, -574, -578, -576, -576, -576, -576, -576, -575, -568, -585, -578, -576, -576, -576, -576, -574, -578, -581, -578, -580, -576, -574, -576, -576, -576, -576, -581, -580, -572, -576, -576, -578, -576, -576, -576, -580, -576, -576, -576, 64, 64, 64, 64, 64, 64, 64, 64, 104, 99, 84, 66, 49, 67, 92, 90, 77, 92, 85, 75, 63, 77, 86, 81, 80, 83, 87, 81, 64, 87, 95, 87, 71, 70, 66, 68, 84, 89, 81, 71, 62, 66, 70, 77, 69, 74, 67, 79, 62, 64, 62, 64, 66, 63, 64, 70, 64, 64, 64, 64, 64, 64, 64, 64, 192, 183, 188, 192, 193, 192, 178, 192, 196, 190, 190, 193, 191, 191, 194, 192, 187, 193, 193, 204, 198, 198, 189, 187, 190, 192, 194, 205, 192, 201, 200, 191, 195, 194, 202, 196, 196, 196, 197, 196, 194, 191, 199, 203, 210, 196, 190, 202, 194, 189, 191, 190, 189, 195, 191, 193, 192, 192, 190, 194, 192, 188, 192, 187, 191, 192, 201, 195, 197, 189, 191, 192, 193, 197, 196, 201, 194, 199, 196, 199, 201, 193, 200, 182, 199, 187, 202, 193, 188, 203, 202, 200, 192, 204, 194, 195, 195, 196, 190, 185, 199, 205, 199, 187, 196, 184, 191, 195, 201, 191, 194, 193, 191, 193, 195, 195, 194, 199, 190, 197, 194, 191, 191, 192, 196, 198, 186, 192, 320, 319, 330, 335, 327, 333, 334, 314, 315, 322, 322, 313, 319, 316, 318, 323, 323, 313, 327, 333, 318, 324, 331, 316, 319, 312, 310, 338, 320, 320, 324, 319, 324, 327, 325, 322, 328, 325, 332, 327, 325, 325, 324, 326, 322, 319, 332, 334, 321, 330, 318, 327, 319, 326, 327, 319, 320, 326, 318, 324, 315, 328, 320, 319, 576, 578, 576, 576, 554, 576, 576, 576, 576, 576, 578, 576, 576, 576, 576, 576, 576, 578, 574, 578, 574, 576, 574, 574, 574, 576, 578, 576, 576, 576, 572, 574, 574, 576, 578, 574, 574, 576, 576, 578, 576, 576, 576, 580, 576, 576, 574, 576, 578, 576, 576, 576, 576, 572, 578, 574, 576, 576, 578, 578, 576, 574, 578, 574, -64, -64, -64, -64, -64, -64, -64, -64, -69, -66, -64, -66, -62, -65, -60, -64, -76, -64, -60, -67, -66, -69, -59, -67, -60, -51, -58, -61, -64, -52, -61, -60, -55, -59, -42, -64, -39, -64, -39, -52, -37, -34, -39, -70, -52, -51, -49, -45, -36, -44, -48, -68, -51, -66, -50, -41, -64, -64, -64, -64, -64, -64, -64, -64, -186, -192, -191, -194, -189, -198, -192, -192, -187, -189, -182, -192, -185, -192, -186, -193, -195, -196, -192, -194, -199, -192, -192, -190, -194, -195, -197, -184, -192, -189, -201, -183, -190, -196, -192, -199, -193, -201, -192, -189, -194, -199, -189, -192, -205, -192, -177, -191, -192, -186, -190, -185, -189, -189, -189, -194, -192, -194, -188, -191, -190, -186, -199, -192, -195, -192, -197, -189, -194, -190, -186, -192, -194, -201, -192, -195, -192, -194, -190, -191, -193, -197, -195, -192, -199, -192, -181, -191, -188, -196, -201, -190, -192, -198, -193, -187, -190, -194, -189, -192, -199, -192, -199, -190, -192, -194, -192, -186, -196, -180, -190, -186, -199, -194, -183, -200, -199, -200, -191, -192, -190, -195, -202, -190, -194, -186, -194, -194, -318, -314, -323, -333, -318, -312, -321, -330, -327, -319, -320, -326, -314, -324, -333, -324, -311, -320, -314, -321, -320, -322, -325, -316, -322, -314, -318, -320, -320, -320, -315, -316, -324, -322, -332, -321, -320, -319, -323, -314, -321, -322, -316, -316, -308, -313, -322, -322, -322, -322, -327, -315, -306, -303, -313, -313, -332, -313, -312, -311, -301, -310, -322, -318, -574, -576, -578, -578, -576, -576, -576, -576, -578, -578, -582, -578, -576, -578, -576, -578, -577, -584, -584, -576, -576, -576, -576, -576, -574, -576, -574, -576, -576, -576, -578, -578, -578, -581, -583, -576, -576, -576, -580, -580, -580, -578, -578, -576, -580, -579, -576, -576, -576, -576, -576, -578, -578, -578, -576, -576, -576, -576, -576, -576, -585, -578, -576, -576, 64, 64, 64, 64, 64, 64, 64, 64, 93, 83, 92, 68, 62, 74, 90, 97, 92, 90, 81, 74, 71, 82, 83, 88, 73, 96, 86, 64, 84, 83, 89, 81, 68, 71, 80, 87, 74, 70, 84, 63, 74, 67, 76, 72, 77, 63, 70, 71, 66, 62, 62, 63, 59, 67, 63, 60, 64, 64, 64, 64, 64, 64, 64, 64, 191, 181, 188, 190, 193, 199, 168, 190, 193, 194, 187, 198, 181, 191, 197, 188, 189, 200, 202, 199, 207, 193, 194, 184, 198, 196, 192, 192, 193, 202, 197, 190, 197, 190, 204, 194, 207, 201, 179, 190, 194, 192, 193, 195, 205, 189, 191, 195, 192, 195, 196, 200, 191, 200, 193, 196, 187, 192, 192, 194, 192, 190, 190, 189, 192, 194, 192, 194, 189, 173, 194, 191, 191, 187, 199, 202, 208, 190, 198, 194, 199, 191, 189, 205, 192, 203, 205, 198, 188, 195, 210, 192, 185, 204, 188, 199, 196, 193, 195, 200, 195, 207, 197, 197, 191, 194, 195, 191, 198, 192, 196, 197, 190, 197, 201, 198, 198, 192, 196, 184, 198, 192, 187, 188, 196, 192, 196, 193, 316, 336, 327, 305, 337, 324, 323, 307, 316, 326, 324, 321, 314, 323, 330, 319, 324, 326, 326, 322, 324, 322, 324, 319, 321, 317, 325, 320, 329, 317, 317, 322, 322, 321, 324, 324, 325, 332, 330, 324, 324, 329, 321, 320, 322, 320, 332, 327, 325, 330, 321, 321, 330, 329, 325, 333, 328, 327, 321, 323, 318, 327, 318, 325, 574, 574, 576, 572, 555, 576, 576, 576, 576, 576, 576, 572, 575, 578, 576, 576, 574, 573, 572, 574, 576, 574, 572, 576, 574, 574, 574, 576, 574, 570, 577, 576, 572, 576, 580, 577, 580, 576, 574, 576, 576, 576, 576, 576, 576, 576, 576, 576, 576, 576, 574, 576, 574, 574, 573, 576, 576, 578, 576, 576, 578, 576, 576, 576, -64, -64, -64, -64, -64, -64, -64, -64, -67, -64, -63, -64, -65, -69, -66, -71, -72, -68, -66, -60, -58, -58, -68, -71, -56, -54, -50, -64, -48, -62, -54, -51, -45, -39, -64, -37, -64, -33, -41, -49, -45, -49, -53, -58, -66, -46, -41, -39, -38, -50, -50, -67, -66, -55, -47, -42, -64, -64, -64, -64, -64, -64, -64, -64, -190, -192, -192, -190, -196, -194, -192, -183, -192, -187, -192, -197, -192, -186, -200, -188, -197, -192, -192, -199, -186, -192, -189, -190, -184, -202, -190, -192, -197, -195, -198, -191, -198, -192, -191, -203, -218, -192, -196, -189, -186, -183, -192, -188, -192, -196, -199, -190, -192, -187, -191, -190, -189, -186, -195, -194, -192, -199, -191, -192, -184, -188, -193, -194, -190, -188, -200, -190, -194, -191, -192, -189, -192, -190, -183, -193, -189, -190, -184, -198, -197, -188, -192, -191, -192, -190, -190, -192, -191, -195, -198, -192, -202, -199, -194, -192, -201, -185, -192, -182, -192, -196, -193, -194, -188, -192, -192, -204, -180, -190, -187, -190, -192, -190, -197, -186, -211, -174, -188, -197, -195, -194, -176, -194, -188, -197, -191, -194, -311, -320, -317, -318, -325, -333, -323, -314, -314, -325, -317, -318, -319, -310, -312, -323, -320, -315, -326, -320, -332, -306, -329, -322, -317, -318, -320, -320, -320, -312, -308, -319, -326, -332, -324, -320, -325, -320, -324, -317, -323, -321, -319, -308, -314, -314, -305, -323, -320, -325, -321, -318, -315, -315, -316, -312, -332, -315, -322, -317, -329, -321, -310, -334, -576, -576, -578, -578, -574, -578, -578, -576, -583, -582, -582, -576, -578, -578, -582, -578, -580, -584, -576, -576, -576, -578, -582, -576, -576, -576, -576, -576, -576, -576, -578, -574, -574, -582, -576, -576, -576, -578, -582, -580, -574, -576, -585, -576, -577, -576, -582, -580, -576, -576, -578, -578, -573, -581, -574, -576, -578, -576, -576, -578, -592, -576, -574, -576, 64, 64, 64, 64, 64, 64, 64, 64, 86, 79, 77, 69, 56, 82, 94, 95, 79, 87, 73, 79, 72, 84, 78, 82, 86, 88, 64, 88, 81, 73, 81, 82, 78, 74, 81, 72, 77, 67, 73, 73, 74, 72, 75, 70, 74, 73, 65, 66, 66, 68, 64, 64, 66, 69, 66, 70, 64, 64, 64, 64, 64, 64, 64, 64, 192, 174, 202, 192, 191, 194, 186, 193, 192, 188, 189, 193, 198, 195, 192, 194, 191, 188, 193, 190, 195, 195, 192, 196, 184, 191, 192, 193, 199, 199, 194, 186, 198, 191, 201, 190, 202, 199, 194, 192, 192, 195, 196, 202, 198, 192, 194, 188, 197, 199, 196, 197, 188, 190, 191, 194, 190, 192, 190, 188, 196, 192, 192, 192, 192, 194, 177, 190, 200, 174, 184, 186, 194, 196, 191, 202, 189, 190, 193, 191, 194, 189, 203, 199, 204, 205, 208, 195, 192, 202, 192, 189, 203, 215, 196, 194, 203, 194, 186, 190, 206, 194, 199, 199, 188, 197, 202, 187, 194, 200, 198, 194, 189, 194, 193, 196, 193, 190, 193, 198, 192, 192, 194, 186, 201, 192, 189, 194, 310, 328, 327, 327, 334, 325, 334, 313, 321, 318, 324, 310, 321, 338, 310, 317, 329, 322, 324, 332, 314, 317, 317, 327, 320, 317, 320, 331, 329, 320, 328, 325, 313, 320, 325, 338, 327, 332, 323, 339, 335, 326, 321, 332, 323, 325, 326, 324, 319, 330, 326, 330, 326, 330, 321, 329, 324, 327, 325, 324, 323, 326, 315, 327, 576, 576, 574, 572, 557, 574, 576, 576, 576, 576, 576, 566, 576, 576, 574, 576, 576, 576, 576, 574, 572, 572, 568, 574, 576, 570, 576, 580, 576, 574, 574, 573, 576, 580, 580, 576, 577, 576, 574, 578, 574, 576, 574, 576, 576, 574, 574, 578, 580, 575, 573, 574, 576, 580, 578, 576, 576, 578, 576, 576, 574, 574, 576, 574, -64, -64, -64, -64, -64, -64, 